{
	"version": "1.0",
	"layers": [
		{
			"neurons": [
				{
					"weights": [
						1.049795748825,
						0.54858190487148,
						0.50301278579293,
						0.67553068442709,
						0.82536006154063,
						0.024513391582826,
						-0.14618230079736,
						0.22506501252923,
						-0.2171079835365,
						0.21555707033578,
						-0.066582535758069,
						-0.304991284398,
						0.71883069872254,
						-0.14917421446572,
						0.16424008935468,
						-0.44342893486202,
						-0.57674995505464,
						0.47805022276058,
						-0.20664691828604,
						-0.44883706859331,
						0.50753698400283,
						0.7850651472754,
						0.32639250163235,
						0.50068818262167,
						-0.12409228493412,
						-0.19270189734254,
						0.38245028944003,
						0.35907596420257,
						0.68426496740733,
						0.38594848600601,
						0.44942132484685,
						0.12843901822633,
						0.16375039140041,
						-0.1246790086862,
						-0.46111588048904,
						0.35684980613688,
						-0.13931131104221,
						-0.1409658519039,
						0.28408714141736,
						0.18444378086126,
						-0.51168593612383,
						-0.69936252265311,
						0.52015219779796,
						0.54322333459996,
						-0.022850167818867,
						-0.66834498028763,
						-0.58830732913247,
						0.089129138650071,
						0.013177549808938,
						0.044211636913004,
						0.20171657806446,
						0.23083559002404,
						-0.12847254744298,
						-3.196145860676
					],
					"e": 2.6078385315435,
					"error": 0.0042516937517523,
					"biasIn": -1
				},
				{
					"weights": [
						0.27264494675855,
						-0.32767254715608,
						0.064955943630626,
						0.059593339451383,
						0.92542813134486,
						0.62687372959336,
						0.33872896931931,
						0.27140000264919,
						0.66444291378682,
						-0.21858243220087,
						-0.21257880759289,
						0.014752773238593,
						0.18646066391059,
						0.28083430805996,
						-0.048742457001652,
						-0.26090952202788,
						0.023327866389665,
						-0.022985624119826,
						-0.47828754186654,
						-0.43887247026399,
						0.029997238521371,
						-0.6521044823675,
						-0.18064074007667,
						-0.18127138696323,
						0.39340429522573,
						-0.35974489450034,
						-0.26803071696976,
						0.1675321885794,
						-0.42154031952087,
						0.2732570103766,
						0.59493470838712,
						-0.64214161567593,
						-0.16879468851098,
						0.4163905862433,
						-0.53234218585052,
						0.39428173590807,
						-0.15709308199663,
						-0.53000155733661,
						-0.42384022081695,
						-0.70744967174013,
						0.33415753338462,
						0.19938953522461,
						0.31382300101036,
						0.70478139185673,
						0.27316332002887,
						0.094449554950312,
						0.045195020161298,
						0.20063759895175,
						0.043992176077428,
						0.01922651787356,
						0.33083674686638,
						0.063477149857793,
						-0.17994462647576,
						-1.5926374951409
					],
					"e": 1.6378325153022,
					"error": 0.0010922165930206,
					"biasIn": -1
				},
				{
					"weights": [
						0.57758737848392,
						0.27070491727513,
						-0.64034138403952,
						-0.482834632985,
						-0.70902455253505,
						-0.52505470882561,
						-0.18148467923973,
						0.57373163179624,
						0.18723509689302,
						0.54807624702983,
						-0.23975300362977,
						0.64089496776607,
						-0.25062707473943,
						0.53126116658595,
						-0.10394829155606,
						0.3804073066402,
						0.040254435735455,
						0.34902833653969,
						0.55780181720854,
						0.4686408893978,
						0.19477975122121,
						0.043808950205239,
						0.44538886660673,
						0.31454167580376,
						0.17046127965245,
						0.69424834923877,
						-0.28651236323256,
						0.16494109973072,
						0.25276600594192,
						0.1638343148364,
						0.69521304121839,
						-0.015139153570571,
						0.6795290393763,
						-0.24672137571915,
						-0.018389020925672,
						0.25177319812645,
						0.54393902364011,
						-0.27236775224604,
						-0.6278553278704,
						0.44940391077508,
						0.29373513904817,
						-0.042192582396984,
						0.31704698923941,
						0.48085855282987,
						-0.030897478923723,
						-0.53602513356984,
						0.32204158187111,
						0.28297981154416,
						0.2421680970676,
						0.07223481023426,
						0.080043102988165,
						-0.43130568515208,
						0.42749303819133,
						0.54972666374897
					],
					"e": -0.22768508187786,
					"error": -0.00041758505542122,
					"biasIn": -1
				},
				{
					"weights": [
						-0.1447847027752,
						0.68678710214497,
						0.12364398380808,
						-0.20290883116822,
						-0.45240681304134,
						-0.092391843814582,
						0.44651944926593,
						-0.016508682631508,
						0.011540076105745,
						-0.62027892920535,
						0.64353461211003,
						0.37892623669521,
						-0.14282356750021,
						0.17972439849343,
						-0.34874422705366,
						0.18330756335038,
						0.35506087033614,
						0.71522345201927,
						-0.43622692309248,
						0.25702060554382,
						-0.27961974375864,
						-0.13316342603852,
						0.18762676574794,
						0.21253611552799,
						0.24959811335532,
						-0.42747245453218,
						-0.073825794091209,
						0.44610412277941,
						0.44765773796005,
						-0.10831420798239,
						0.10210545797037,
						-0.096218678084407,
						-0.19603908549706,
						0.52340674318635,
						-0.20930692876295,
						-0.087210353473839,
						-0.035570698585975,
						0.055812185071833,
						0.028012013836524,
						0.43194844335476,
						0.034296089122137,
						0.010936010970342,
						0.4961200804535,
						0.49904670436926,
						-0.058485731639091,
						-0.57228154283692,
						-0.344385442355,
						0.33297621414773,
						-0.31496080431956,
						0.22186752732102,
						0.4726507799676,
						-0.28988399869395,
						-0.042988720706297,
						0.04050805397305
					],
					"e": -0.38489349632805,
					"error": 0.00022079451112447,
					"biasIn": -1
				},
				{
					"weights": [
						0.89867584395123,
						0.20249736997289,
						0.17608636892322,
						0.57672553134548,
						0.98743957544236,
						-0.41051069962987,
						0.23106508496545,
						0.15712746667799,
						0.52343269681821,
						0.68825851550132,
						0.39785387040476,
						0.19599456662229,
						0.052327610018102,
						0.16951437560529,
						0.64793550447701,
						-0.67364256284375,
						-0.41224934476703,
						0.25850365238698,
						-0.085301220120433,
						-0.07087107327102,
						-0.15658863706048,
						0.76817421654949,
						0.50343698227254,
						0.20418267372321,
						-0.44067169756442,
						-0.52991798551888,
						0.10409785727273,
						0.67147278536843,
						0.14729846868176,
						0.66953475324761,
						0.6465495902681,
						0.11678626406685,
						0.20492297712839,
						0.42442973244314,
						0.082896145435571,
						0.14903475990212,
						0.13365044036316,
						0.61955943809969,
						-0.42523805810399,
						0.23311143201927,
						-0.64972716995365,
						0.607991853417,
						0.49658834245932,
						-0.25828790337802,
						0.44999192895937,
						0.17694891518875,
						-0.54597001907797,
						0.23982341518514,
						-0.72194180239186,
						0.11584382196591,
						0.57505177953154,
						-0.049550630770311,
						0.31379019424134,
						-3.5713503240572
					],
					"e": 3.0253803049792,
					"error": 0.0061792968351943,
					"biasIn": -1
				},
				{
					"weights": [
						0.74434464611803,
						-0.53951649226232,
						0.66178671241925,
						0.89559372480802,
						0.45804080815452,
						-0.60379897566879,
						0.073220155776327,
						0.64944251559745,
						-0.70604009853129,
						-0.1518914758121,
						-0.061652609598561,
						-0.066153181152593,
						0.25537358378645,
						0.03537475495024,
						-0.25588686974127,
						-0.024625124756184,
						-0.65416286977858,
						0.80847824544613,
						-0.54441974650446,
						0.36966401831202,
						0.70873815469847,
						0.11118353782727,
						-0.52029132015801,
						-0.46265527834006,
						-0.24645540449075,
						-0.51428498863752,
						-0.044345846085878,
						0.17944926464368,
						-0.5043712357183,
						-0.0062749242970697,
						0.76054152831847,
						0.043605038114536,
						-0.63649449234769,
						0.53309012402562,
						0.087500409858896,
						0.84267602318045,
						0.74545836942387,
						-0.1467204502546,
						0.20197670132261,
						-0.42081898785232,
						-0.13224643018044,
						-0.31252345397824,
						-0.5382050100064,
						-0.2979327906017,
						-0.02347994816755,
						-0.22316340054429,
						-0.26435410955089,
						-0.12512384187565,
						-0.079662894272192,
						-0.38638795451662,
						-0.11384393220584,
						-0.4050501217727,
						0.52047692855946,
						-3.3089145263369
					],
					"e": 3.044560416786,
					"error": 0.0041866089512319,
					"biasIn": -1
				},
				{
					"weights": [
						-0.90744465905759,
						-0.3037885674536,
						0.27588200056837,
						-0.48833457826689,
						-0.1611058787162,
						-0.71653552877573,
						-0.07118682045487,
						-0.24189725139073,
						-0.033398082831698,
						-0.48517077099454,
						-0.34953221245218,
						-0.061443205615143,
						-0.84712763558901,
						-0.12004140821187,
						-0.50930379051748,
						-0.34923830822676,
						0.17356915309915,
						-0.26837849289691,
						0.024695731581616,
						0.049329268374108,
						0.55483386968006,
						0.016700243818081,
						-0.19107438230697,
						-0.12064504908349,
						-0.25570996874818,
						-0.14631911045586,
						-0.10221489486098,
						-0.19760782419225,
						0.20886298358957,
						0.18749194748636,
						0.44681798042598,
						0.23131674479392,
						0.37129512666423,
						-0.15816984552908,
						-0.060136845234017,
						-0.2304650989938,
						-0.16020987058951,
						-0.61096251514479,
						-0.26400931768773,
						-0.0046432749408521,
						-0.11561694269721,
						0.13908549976389,
						-0.019178842798321,
						0.3950355630914,
						-0.33102876229829,
						-0.63058464012705,
						0.22178663988577,
						0.66194684169449,
						-0.08898407538012,
						0.37883267789197,
						0.064969697661115,
						-0.67753291940305,
						0.16265523661155,
						3.8987298957892
					],
					"e": -3.6769432559034,
					"error": -0.004419545181626,
					"biasIn": -1
				},
				{
					"weights": [
						0.98779954442773,
						0.73238542671162,
						0.70967603727798,
						1.2259075865686,
						0.6925336880749,
						0.73685017084474,
						-0.21574627886581,
						0.21451268996555,
						-0.039334026054273,
						0.58453088318467,
						-0.44186774672685,
						0.1107723549162,
						0.17418046556756,
						0.25091258522487,
						0.21703089427456,
						0.30909562916126,
						0.5140578153973,
						0.26213919337435,
						-0.42300165171978,
						-0.19346707538621,
						0.27081312120205,
						-0.52784065229926,
						0.68579081491293,
						0.14968379446122,
						0.65014743305647,
						0.66216425154736,
						-0.045968414788381,
						0.7364791489568,
						-0.34857261044476,
						0.2105016996098,
						-0.15072014243252,
						-0.71224162282164,
						0.10373166754188,
						-0.12849672669837,
						0.23149435359692,
						0.13626673095981,
						0.2366831651812,
						0.14990921416033,
						0.36571035822679,
						0.064874989358334,
						-0.57836062107118,
						-0.028193578732187,
						0.14625774643779,
						-0.66070350649903,
						-0.11868398981004,
						0.56655998820848,
						-0.7109384180201,
						0.10052978916946,
						-0.041650908216568,
						0.17473673769131,
						-0.20003896808357,
						-0.4529612465646,
						-0.42873953150164,
						-3.098062794689
					],
					"e": 2.3871243766689,
					"error": 0.0041285232179409,
					"biasIn": -1
				},
				{
					"weights": [
						0.94137607920849,
						-0.55811185243175,
						0.22868094710003,
						0.26629111318219,
						0.14242480517925,
						0.25509667501734,
						0.1277738365736,
						-0.064799839602233,
						-0.075564579737066,
						0.38575919904715,
						0.27758956455164,
						-0.094038709239949,
						0.45127928298307,
						-0.31373764504661,
						-0.17648707603055,
						0.38002169607956,
						0.086662978234713,
						0.62103524569519,
						0.31946924982671,
						-0.41943445428561,
						-0.61096896642605,
						0.68390123329044,
						0.3663751159721,
						-0.064674860883134,
						0.1235680957543,
						0.046029059517352,
						-0.67125922089347,
						0.58199345855442,
						-0.075067119112839,
						0.77618751721639,
						0.40573715327214,
						-0.067543689529302,
						0.19060667858849,
						-0.19504189839252,
						-0.67940615601913,
						0.055997460407419,
						0.25731388060212,
						-0.24446233011998,
						0.036653462656185,
						0.21582719108475,
						0.070754204441185,
						0.16493099063761,
						-0.10276661458451,
						-0.66653541540204,
						0.11835287157266,
						-0.64181698177198,
						-0.19767307160417,
						0.34751226989074,
						-0.080925426819896,
						0.03073770194711,
						0.23568419923908,
						0.087897021028062,
						-0.63278877751669,
						-1.5065885621026
					],
					"e": 1.3089154904985,
					"error": 0.00089595565762271,
					"biasIn": -1
				},
				{
					"weights": [
						1.1680583590058,
						-0.25595212896965,
						-0.17172862724119,
						0.95966065980837,
						0.69780203835951,
						-0.11260582197074,
						0.55128209452854,
						0.5470864379383,
						-0.059106836924948,
						0.1102726366988,
						-0.41160877853728,
						-0.26630282101411,
						0.93424068033928,
						0.69300632296255,
						0.035118922953533,
						-0.18465729385594,
						0.55499293064504,
						0.036218314166324,
						0.061372399695029,
						0.67375484511787,
						0.00038279102196302,
						0.43193398782076,
						-0.055816303620065,
						0.28185537701151,
						-0.18274864986109,
						-0.017586264765836,
						-0.083525389047706,
						0.33172306007371,
						-0.085863697253208,
						0.46093817777542,
						0.25198131267757,
						-0.50298006517124,
						0.10408579436218,
						0.017863091684711,
						-0.63810061819866,
						0.39920080913942,
						0.055182477197059,
						-0.46087734404117,
						0.63336283311864,
						-0.42951958661921,
						0.21725234860883,
						-0.55404643866991,
						0.19083883448905,
						-0.07934973265842,
						-0.19551210732818,
						0.052178847757148,
						-0.089560444172164,
						-0.034612686984423,
						0.44625893569015,
						-0.59697370059751,
						-0.37921303981051,
						0.68180373190158,
						0.14917210416261,
						-4.4171689377622
					],
					"e": 4.32760849359,
					"error": 0.013627255024778,
					"biasIn": -1
				},
				{
					"weights": [
						-0.12284876902543,
						-0.6888284356523,
						-0.59660901749452,
						-0.41488717190083,
						-0.76766265205984,
						-0.14747775966398,
						-0.11317757085874,
						-0.04008047609048,
						0.36608408209323,
						0.32343409577599,
						0.58724813175147,
						0.26996409592579,
						-0.67851071073994,
						-0.16709668046817,
						0.40281496082255,
						0.25373598716091,
						0.24285789509896,
						0.018190863765886,
						0.49639091278362,
						0.063706425622281,
						0.21272378020937,
						-0.2506891620784,
						0.10943836208171,
						-0.39662875512166,
						-0.26192397982347,
						0.12496043477561,
						0.16174806130378,
						0.051409525943415,
						-0.12830035754038,
						-0.76744163363782,
						0.11722040102037,
						-0.26440859725076,
						-0.6880397249061,
						-0.1233971444171,
						0.14433202446537,
						-0.15575495939629,
						0.2323839662236,
						-0.15362563859475,
						-0.17253877769142,
						-0.25338411335743,
						0.22331129487394,
						0.097526077562826,
						-0.62633020027939,
						-0.25865714018274,
						0.43829903107161,
						-0.18050371897534,
						0.21174319551045,
						-0.11007987399951,
						0.38056297139394,
						0.082453109491724,
						-0.061967556730001,
						-0.68134177355262,
						-0.053722301393721,
						2.1277968273273
					],
					"e": -1.9160536318168,
					"error": -0.0010557063424873,
					"biasIn": -1
				},
				{
					"weights": [
						0.69782616648743,
						0.067992758691121,
						-0.086009695105363,
						0.57211440185501,
						0.71881455712089,
						0.31887548727151,
						0.61542890446728,
						0.37497422525231,
						-0.2409468458587,
						0.018907585565645,
						0.26687074564899,
						-0.2091804053315,
						0.23262720968594,
						0.13267037484314,
						-0.36292392392504,
						0.090826742576164,
						-0.18986227821798,
						0.34019318418834,
						-0.087549997198082,
						-0.32939614586216,
						-0.51871680249198,
						0.62141117558194,
						0.10494067193353,
						0.31579122334727,
						0.38649392108874,
						-0.15207156991331,
						-0.38663400167804,
						0.40858618801034,
						0.70273209802106,
						0.6086685651138,
						-0.17184883068632,
						0.18788206133324,
						-0.30612703646922,
						-0.16037840323437,
						0.13667374356391,
						0.12156829363701,
						-0.068253495630789,
						0.24928859801569,
						0.10763053176166,
						0.50836585799092,
						-0.13358582421658,
						-0.44457835991252,
						-0.069436327457269,
						0.26732105694017,
						0.025289561016258,
						0.14431200661794,
						-0.37912207101534,
						0.32448197018667,
						0.28699733317328,
						0.26284052037663,
						-0.26030744099176,
						0.45350323485943,
						-0.36284643043069,
						-3.6998312253815
					],
					"e": 3.3207091543661,
					"error": 0.0057330929301994,
					"biasIn": -1
				},
				{
					"weights": [
						-0.27336438455966,
						-0.72183913250708,
						0.34893751939347,
						-0.3819305942328,
						-0.48350579025657,
						0.016582152623712,
						0.12306811257439,
						0.39223822848095,
						-0.38070286442662,
						0.55894131340707,
						-0.17250273173998,
						-0.65135712054259,
						-0.17187547349443,
						-0.039382311804253,
						0.56920161572675,
						-0.28321581112342,
						-0.12925056346588,
						-0.39485430893013,
						-0.43552723813697,
						-0.48942603836681,
						0.014931736424681,
						-0.14100832944225,
						0.19083720121831,
						0.24562369197025,
						0.082489346599695,
						-0.11179967651765,
						0.57132890915514,
						-0.22753056180828,
						0.68674733043135,
						-0.11954670202676,
						-0.5384606732255,
						-0.25475471677842,
						0.030367407625609,
						-0.43999518787592,
						-0.26489645428356,
						-0.11234981798093,
						-0.27493866796211,
						-0.10114533668166,
						0.10135678772921,
						-0.10761274322761,
						0.12874718406779,
						0.036785691657366,
						0.57861925209912,
						-0.012381083001457,
						-0.54501030234025,
						-0.39760033838443,
						-0.48998823818388,
						-0.25966363678774,
						0.024252005734702,
						0.69811399440297,
						-0.45167493409193,
						0.41754289583292,
						0.36884448634976,
						1.0363687392111
					],
					"e": -1.526356977395,
					"error": -0.000089959187405882,
					"biasIn": -1
				},
				{
					"weights": [
						0.51662324908289,
						0.52702139468357,
						-0.26077163151398,
						0.81270283959529,
						0.50660257853743,
						-0.38500563184925,
						0.055946276578105,
						0.81528253951897,
						0.20967317115862,
						0.68426825134718,
						0.40719448326862,
						0.062939372537992,
						0.008809389287213,
						-0.24011658245117,
						-0.36662199917339,
						-0.39572911199343,
						-0.066255227879352,
						0.14828620194749,
						0.23092155109772,
						0.06220359190081,
						-0.50139867476847,
						0.22370886552045,
						0.007570145783613,
						0.41889474752102,
						0.11876314568261,
						0.53892304362295,
						0.054626766353789,
						0.21964967325704,
						0.61547167801191,
						-0.29740943362566,
						-0.46425821445358,
						-0.27661712327918,
						-0.18215111990456,
						-0.39559582859176,
						-0.70830364172837,
						0.064205692492719,
						-0.52118178425755,
						-0.39144354250308,
						0.43176208284458,
						0.37103684947846,
						0.57250064791571,
						-0.20319391204089,
						0.10136251096781,
						0.090380344918278,
						0.1620763614235,
						0.67786470120777,
						0.63167135853036,
						-0.34808655226152,
						-0.11932964362069,
						0.33162400268663,
						-0.039182003269419,
						0.69955536509947,
						0.54732613091802,
						-3.2646364905293
					],
					"e": 3.8963078490596,
					"error": 0.003026241762217,
					"biasIn": -1
				},
				{
					"weights": [
						0.60330817209111,
						-0.28878000985171,
						-0.11401359217066,
						-0.15669981489026,
						0.54502887042805,
						-0.21982501680803,
						-0.14617548136508,
						-0.37833835839685,
						-0.23122348354824,
						-0.17250859354549,
						-0.50127274010262,
						0.53420117136856,
						0.19178770185267,
						0.12781500038859,
						0.25861748094899,
						-0.36704276261529,
						-0.25689924252131,
						0.28915323620648,
						-0.61003532089864,
						0.45252152679313,
						-0.46857897263791,
						-0.18986740680371,
						0.51157237926211,
						0.74506378696299,
						0.65109195658194,
						-0.62299976067086,
						-0.42474435034029,
						-0.28562652699285,
						0.25428061093041,
						0.24805596011738,
						0.30231400337743,
						-0.24903880011815,
						-0.17636777947384,
						0.27372606217466,
						-0.080649203994717,
						-0.50453853831871,
						0.23126635446469,
						-0.27620921109497,
						0.64149219787587,
						-0.19798151389137,
						0.15273465993988,
						0.27735809795539,
						0.11519355857418,
						0.679627089017,
						-0.01188803172396,
						0.42035143782505,
						0.24260330969486,
						0.58848358891472,
						-0.10779579979627,
						0.15197021441057,
						-0.30861842680296,
						0.38577827257477,
						0.3247145582209,
						-1.7799540741111
					],
					"e": 2.022557383806,
					"error": 0.00023415885031664,
					"biasIn": -1
				},
				{
					"weights": [
						0.38892261592885,
						-0.039982725363783,
						0.085284522903646,
						0.41216964357459,
						0.57789086317631,
						0.24791626308683,
						-0.2610688203752,
						0.33116231058824,
						-0.69501731284765,
						0.1133517564268,
						-0.15897881007699,
						0.39340825058316,
						0.17568069811892,
						0.48717661869302,
						-0.1653545605268,
						-0.16244978098685,
						0.49707339040275,
						0.28462716924554,
						-0.42436720251413,
						0.081086866379915,
						-0.56651794956915,
						0.26551266612956,
						0.24428021298684,
						-0.52182330863966,
						0.68341221437195,
						0.11802728848949,
						0.12468748371195,
						-0.035238787506313,
						0.056144802986608,
						0.53693913469136,
						0.08192282031327,
						-0.12293939590487,
						0.53237335209483,
						-0.25484437101177,
						-0.3126919130026,
						0.43430540387988,
						-0.31068634282245,
						-0.068320355284823,
						-0.33150525506953,
						0.59247055869855,
						0.086937093831397,
						0.30547260028668,
						0.67565864575928,
						-0.25343375724331,
						0.28295545140522,
						-0.68565909956018,
						-0.2868391745766,
						0.67885795114612,
						0.29968884402044,
						-0.60928641414806,
						0.02728809497762,
						0.39623676711622,
						0.070122564373492,
						-2.9385798079121
					],
					"e": 2.6517406333355,
					"error": 0.0027273502587722,
					"biasIn": -1
				},
				{
					"weights": [
						-0.13931280220458,
						-0.15939740449078,
						0.40036728797601,
						0.50548577300908,
						-0.084022117021889,
						-0.53129944831939,
						-0.28350597093322,
						-0.45572788276067,
						0.61058524592445,
						-0.21961231299349,
						0.33186390802154,
						0.35598817983559,
						-0.4303296169481,
						0.61760464005977,
						-0.091309161706267,
						-0.45177133430458,
						-0.0022568236702456,
						-0.19861282223236,
						0.10154722322678,
						0.30233049522225,
						-0.27280538966798,
						-0.070421768568847,
						0.10554643156315,
						-0.33790359966289,
						0.25271318227875,
						0.23350495516462,
						0.13355305281201,
						-0.25684162828032,
						0.18203481980798,
						-0.73744889187255,
						-0.37594536793802,
						-0.17315710843326,
						-0.56743368380221,
						-0.60087318826611,
						0.3543611602283,
						0.10711614282358,
						-0.59117428358673,
						0.10058713667475,
						0.26767191796947,
						0.19715031744727,
						0.57139942852846,
						0.043070146032073,
						0.46900190561601,
						0.068305248297065,
						0.010241311384581,
						-0.2552264880077,
						-0.7131706478239,
						0.57842832305499,
						0.22855209955309,
						-0.57982412506922,
						0.076934928239655,
						0.04806405108901,
						0.66897975951023,
						0.28175298417524
					],
					"e": -0.99492363199914,
					"error": -0.00008905296174693,
					"biasIn": -1
				},
				{
					"weights": [
						-0.15962727876927,
						0.29729843722265,
						0.47831055391605,
						-0.2538584857395,
						0.011443342186244,
						-0.43648698076223,
						-0.2420963023179,
						-0.11143656929143,
						-0.072280016890754,
						0.55729785916087,
						0.6499829124542,
						-0.65831027803036,
						-0.26904284399186,
						-0.089749133341391,
						-0.48373838527681,
						0.19570127891356,
						0.15974156804797,
						-0.13216294561017,
						0.58987178016086,
						-0.42924296902093,
						-0.064931357096093,
						0.1263091244502,
						-0.13738544316749,
						-0.1555065506378,
						0.66105103270853,
						0.31982501576855,
						0.23859786066394,
						0.20460590998258,
						0.52321339782581,
						-0.27095610250177,
						-0.20705843267135,
						-0.33180145176781,
						-0.32176074015162,
						0.14732567007891,
						0.10456291671227,
						-0.23841647301356,
						0.03039626522937,
						0.16647181583429,
						0.32000782729814,
						-0.46076290829546,
						-0.58950798384709,
						0.1423130835707,
						-0.59773129286242,
						-0.26970582434325,
						-0.3636555020166,
						-0.03853488588534,
						0.3450646051519,
						0.21458837180043,
						0.3656418673172,
						0.41179119801801,
						-0.25240400178832,
						0.46687433085828,
						-0.27456143431009,
						0.033989541490568
					],
					"e": 0.31107506366133,
					"error": -0.00098080280392748,
					"biasIn": -1
				},
				{
					"weights": [
						-0.79619858528087,
						-0.14453598259999,
						0.44521578129727,
						-0.58294668423065,
						-1.1020969689618,
						-0.026606543693439,
						-0.24504337976993,
						-0.73030896160169,
						-0.085290110580396,
						-0.045845740608979,
						-0.30621699547483,
						0.24552990567093,
						0.40999086590439,
						-0.11170702555935,
						-0.42690296199452,
						-0.28200166281549,
						0.05939752262763,
						-0.21307490597235,
						-0.011362458713884,
						0.34530635142672,
						0.32739646484482,
						-0.67668789195432,
						-0.23470768790623,
						-0.55660711603702,
						-0.2581282677003,
						-0.59165230897346,
						-0.48526726391401,
						-0.49032109093722,
						-0.37267726664194,
						-0.59070848806357,
						0.4728464646965,
						0.034780181831216,
						0.60944046840615,
						-0.05602137594402,
						-0.19756021745286,
						-0.052929431330802,
						-0.73531869489457,
						0.36542211662412,
						-0.29815228432637,
						-0.024173235429099,
						-0.15412571063647,
						-0.22628812608498,
						0.71746419111252,
						-0.56206360798529,
						-0.28098305268362,
						0.64954850514036,
						0.38138662702572,
						0.41957342025908,
						-0.56797348721428,
						0.4222384379918,
						0.23032514402089,
						0.39187257416271,
						0.16520889284435,
						2.6128292028464
					],
					"e": -2.2314425758207,
					"error": -0.0027697972550695,
					"biasIn": -1
				},
				{
					"weights": [
						1.2320856331873,
						-0.62109772797142,
						0.59110981706219,
						1.1227684482281,
						0.59124163856227,
						0.24611874969693,
						0.72745324368298,
						0.68258820943213,
						0.39925932377646,
						0.78763726076268,
						-0.028889797192394,
						-0.17097941361982,
						0.73207977282106,
						0.29243497321621,
						0.31286988933709,
						-0.33814209767845,
						0.4057063099928,
						0.27286903650133,
						-0.33009075282715,
						-0.019537768153225,
						0.062208138278489,
						0.0063631034543651,
						0.010093822758165,
						0.14690644768182,
						0.2207609000291,
						0.34590532765098,
						-0.46600205562892,
						0.42544560160844,
						0.16137684529608,
						-0.18545283156328,
						-0.22222162127858,
						-0.59965417875064,
						-0.1275083811047,
						0.61241776558321,
						-0.14401850843161,
						0.14074932619954,
						0.20042886147641,
						0.40253749806997,
						-0.28005893877113,
						0.33965210578425,
						0.052196033825876,
						0.69379023481906,
						-0.14980491969156,
						0.69408032503738,
						-0.24106978183559,
						-0.5449297610983,
						-0.14925873972079,
						0.20669629540503,
						0.13858469129371,
						-0.057666064137541,
						0.023873914173642,
						-0.051286981594313,
						0.56376432035397,
						-3.9196154584793
					],
					"e": 3.7703567187585,
					"error": 0.0092619945600653,
					"biasIn": -1
				},
				{
					"weights": [
						1.2415566286936,
						-0.24327649984888,
						0.44602897445124,
						0.79254269019124,
						0.3177412247268,
						-0.16077146127501,
						0.34780153241511,
						0.14420662973475,
						-0.34122265645463,
						0.14002745126323,
						-0.2483065665251,
						-0.041405115632167,
						0.54554603811534,
						0.075839751506639,
						0.009829023976452,
						0.05931772429324,
						0.65807325423961,
						0.25518937626441,
						-0.12215884348582,
						-0.15043806046593,
						0.19702247456745,
						0.34097015351137,
						-0.12606580153098,
						-0.1305719326823,
						-0.0093090486493532,
						-0.52472989608425,
						-0.048790131745117,
						0.74756551501527,
						0.46987157929321,
						0.33589416460441,
						0.18918608971841,
						-0.17999564153246,
						0.20793029662694,
						-0.59805376516668,
						-0.64095994986742,
						0.14122731006533,
						0.75421518265144,
						-0.19222239717783,
						0.50693912362896,
						-0.26474197827745,
						0.041752996395441,
						0.57138062328734,
						-0.39034263562065,
						0.080841212234748,
						0.26500925234856,
						-0.30028048112174,
						0.15800917401714,
						-0.17593551541386,
						-0.71225926020857,
						-0.2133435960559,
						-0.06631204802009,
						0.045774387812033,
						0.44971168421765,
						-3.173147755388
					],
					"e": 3.3311569294051,
					"error": 0.0039928300089336,
					"biasIn": -1
				},
				{
					"weights": [
						1.2999945325556,
						0.23403123161423,
						0.52771538554222,
						1.3145325735923,
						1.072087310401,
						0.62332852956965,
						0.55210499825871,
						0.38157853193157,
						-0.225495505588,
						0.20053150267867,
						0.17030624427335,
						-0.12430730827457,
						0.22195552148447,
						0.37556994303196,
						0.71715164172175,
						-0.23997081105444,
						0.18383325203265,
						0.78909734562459,
						-0.094046047803139,
						-0.021583982026369,
						0.43504719232662,
						0.54952639696138,
						0.53496058125432,
						-0.46680976694579,
						0.099901804442206,
						0.51874268042379,
						-0.27710984426911,
						0.49320583476174,
						0.49657856590059,
						0.20021855278641,
						0.24932905768028,
						-0.10613398152793,
						0.49166788031063,
						-0.043100075945667,
						0.50275250581325,
						0.15736338984427,
						0.69429945145517,
						0.35062935336224,
						0.28331472007686,
						0.63274529194285,
						0.19105101532828,
						0.14936894291413,
						0.48075400814553,
						-0.13916175945726,
						0.25663057367057,
						0.05956145158845,
						0.073187525288858,
						-0.28473604517382,
						0.4925369118409,
						0.01609733388474,
						-0.13886567431553,
						-0.69094655821713,
						0.45218168765977,
						-4.3394808416504
					],
					"e": 4.4126683669393,
					"error": 0.016727882450315,
					"biasIn": -1
				},
				{
					"weights": [
						-1.1753801765798,
						0.077499217261342,
						0.16602890514222,
						-0.53823725479291,
						-0.079476630456538,
						0.42672009909676,
						-0.73865671347877,
						-0.1850973827639,
						0.27779323142023,
						-0.063687619687724,
						0.15823498795459,
						0.59895289331729,
						-0.1240623884728,
						-0.017503978677868,
						-0.23826442006144,
						0.30749667928562,
						0.6786484473083,
						-0.77288214040015,
						-0.19497980013152,
						0.28546309060666,
						-0.32928393535991,
						0.41887837164344,
						-0.029135496769728,
						-0.12631744377956,
						-0.40516010870349,
						0.012098974795352,
						0.60388609102867,
						-0.52126811563963,
						0.64783422666139,
						0.29531018424251,
						0.022253783057332,
						-0.39277336332714,
						0.066120786959465,
						0.57761955088928,
						0.60585494866971,
						-0.19463321790211,
						0.46647115610304,
						0.4115919895395,
						-0.10998807046662,
						-0.2436464354626,
						-0.35552902044913,
						-0.26583326866087,
						-0.062539913591352,
						0.44836389467613,
						0.069353322401445,
						-0.31147581712981,
						0.041489262282507,
						-0.068930225142607,
						-0.41385443701226,
						-0.27089415516177,
						-0.27516452921433,
						-0.25960641751875,
						0.32965937911155,
						2.8006640107878
					],
					"e": -2.7591747485053,
					"error": -0.0020249422354034,
					"biasIn": -1
				},
				{
					"weights": [
						0.4627095947256,
						-0.35886099645251,
						0.62847745108916,
						0.92810003217075,
						1.0207846006047,
						-0.22404023742098,
						0.3906818569971,
						0.80261369020294,
						-0.083783167789693,
						0.27124352850442,
						-0.066095930078177,
						0.35068032335159,
						-0.13537089316089,
						0.24536592965211,
						0.20766994237173,
						0.21323516140274,
						0.07923175785324,
						-0.017859450198044,
						0.12604867380498,
						-0.1756246248512,
						0.24906605650773,
						0.069332431889505,
						0.21366659556184,
						0.36294926960054,
						-0.058799445079035,
						-0.19333143639281,
						-0.01816547639555,
						0.073899649072443,
						-0.52547579875574,
						0.10508188925602,
						0.66146906172399,
						0.11743325918897,
						0.62710714589308,
						0.17608872423801,
						0.44959922003179,
						0.084721923428425,
						0.75083617066134,
						0.18062453697977,
						0.54901403989111,
						-0.24020331405484,
						0.35600710192322,
						0.065527202928322,
						0.039927602893536,
						0.34678238354111,
						0.26411897222807,
						0.045568680541286,
						0.61978270548489,
						-0.32036671277256,
						-0.38447238230458,
						-0.16662099652197,
						-0.2727471997731,
						-0.31084300299783,
						0.018083341091807,
						-3.0107588544584
					],
					"e": 3.6305415599433,
					"error": 0.0034625923853509,
					"biasIn": -1
				},
				{
					"weights": [
						-0.82567689450067,
						0.19033307822074,
						0.40430138312584,
						-0.49205902907048,
						-1.0142752056766,
						-0.70402037184083,
						-0.52586200287093,
						-0.069285463361254,
						0.54288454040191,
						0.29014601855365,
						0.032461348606164,
						0.59476185791054,
						-0.039186741233289,
						-0.034469463796967,
						-0.076420446292823,
						0.62045980067066,
						0.24965399110998,
						-0.68289940724416,
						-0.12690851504408,
						-0.39501993334856,
						-0.24224878599375,
						-0.40353098968987,
						0.35411198793557,
						0.10140763913591,
						-0.35212096958832,
						-0.27988538627658,
						-0.28106266756685,
						-0.38053326668258,
						0.12313956015062,
						-0.88468791566292,
						-0.039394895946415,
						0.071514358441016,
						0.55770706910637,
						-0.55972017081545,
						0.24079819766945,
						-0.097646661318199,
						0.15000770716336,
						-0.698771923227,
						-0.0091262922822456,
						0.051036403793187,
						-0.53302464748664,
						0.55837185787065,
						0.094409208193715,
						-0.0073270938755501,
						-0.6680507210038,
						0.071104791384808,
						-0.26212127811271,
						0.043187876847091,
						-0.19945397224355,
						-0.18646529198822,
						-0.24117524081999,
						-0.33832416965652,
						-0.23009559044257,
						3.9342908666656
					],
					"e": -4.1964121447783,
					"error": -0.0066012884652168,
					"biasIn": -1
				},
				{
					"weights": [
						-0.25532982939851,
						-0.31806366459727,
						0.16300847448445,
						0.18081319625931,
						0.63874993363359,
						-0.0062590864853371,
						-0.0068828598580732,
						-0.2283703357472,
						-0.11368860695114,
						0.083026422650504,
						-0.68655673327447,
						0.35935086807309,
						-0.53421787426005,
						-0.20093833889319,
						0.58069976981583,
						-0.060262561380181,
						0.24306069031646,
						-0.16504026210196,
						-0.020181267195362,
						-0.34451693895116,
						-0.57295890343431,
						-0.18482609654389,
						0.26885086914268,
						0.54726869899025,
						0.17661163808525,
						0.066093878988341,
						0.30446086917627,
						-0.20306682417559,
						0.065103892862276,
						-0.51352723259857,
						-0.1924785035198,
						0.5573905018529,
						0.71338900850881,
						-0.045344802701437,
						-0.2668178498487,
						0.23653047486275,
						-0.47257291272794,
						0.063059922175874,
						0.58986537130724,
						0.71485392575048,
						0.11152257481325,
						-0.20018241437057,
						0.0098264563305323,
						0.04101341186035,
						0.076062955333984,
						0.23693278336858,
						0.095857317474708,
						0.17286480352985,
						0.48899829816596,
						-0.33578740016465,
						-0.28563151182973,
						-0.3877652665181,
						0.16193947749406,
						-1.920373550206
					],
					"e": 2.0162308676807,
					"error": 0.00093936187839658,
					"biasIn": -1
				},
				{
					"weights": [
						1.3237262237498,
						0.040602122538083,
						0.67382768979112,
						1.2654071273435,
						0.43312358260465,
						0.44099673050153,
						0.30762810869299,
						0.77807859240001,
						-0.28699361859319,
						-0.051590197100075,
						0.68510083232744,
						0.16849430252159,
						0.35763416666967,
						-0.36306882255618,
						-0.19944965896557,
						-0.11996781571713,
						0.17096851480148,
						0.77628769152558,
						0.4799831231135,
						0.076896456308158,
						-0.23176644024891,
						0.24587757897793,
						0.1471032032178,
						-0.17078011201895,
						0.089541541976354,
						0.24105920081855,
						0.014033851827361,
						0.61419007303365,
						-0.71428966961639,
						0.29512822199216,
						-0.39399264294782,
						-0.029853705925695,
						0.61947228449476,
						0.18115318774196,
						-0.18733578916153,
						0.46888337316947,
						0.22129346986989,
						-0.57756328966778,
						-0.29721304044819,
						0.13759823202825,
						-0.64683303777922,
						0.66797761031901,
						0.42540381622856,
						-0.31795965882027,
						-0.6663997896894,
						-0.07430479852321,
						-0.16642307484925,
						-0.5802327069931,
						0.26248137745294,
						-0.71868410028559,
						0.070045919526493,
						-0.21313343825327,
						0.16987591397374,
						-3.638188487717
					],
					"e": 3.4717654128677,
					"error": 0.0071415161617453,
					"biasIn": -1
				},
				{
					"weights": [
						0.48487977698774,
						-0.27665307844214,
						-0.074522316154232,
						0.50361957466611,
						0.71446614141589,
						0.34792788061717,
						-0.33836046021255,
						-0.21027771084702,
						0.275997543241,
						-0.2730311901826,
						0.39524124641731,
						0.17837058028958,
						0.25209415921841,
						0.49809175933696,
						-0.037474823149605,
						-0.21375128884192,
						-0.48492314199388,
						-0.34767334259621,
						0.13684924618091,
						0.64422627362861,
						0.11152835543712,
						-0.007698883581026,
						0.23275009789368,
						0.49238066937965,
						0.43896059663706,
						0.21374642328935,
						0.043613289371934,
						0.29738990661238,
						0.085358521345808,
						0.65357154284145,
						0.24133334476036,
						0.20013718794934,
						-0.17356625566994,
						-0.64056742534171,
						-0.053278517339146,
						-0.28062468248179,
						0.018031604011923,
						0.28100737431101,
						-0.67760328633807,
						-0.46940146692889,
						0.037084058500079,
						0.24092460308164,
						0.20864730071576,
						0.694388655674,
						0.17348747881861,
						-0.66824357276338,
						-0.29657357978578,
						0.24350551747052,
						-0.26091217693812,
						0.34019017874376,
						-0.023391078366511,
						-0.24291995191979,
						-0.088801651173748,
						-2.4563986450408
					],
					"e": 2.159825065255,
					"error": 0.00040809216064498,
					"biasIn": -1
				},
				{
					"weights": [
						0.83750390476208,
						-0.22939028972166,
						0.69460514859149,
						0.67990634846552,
						0.55328561695126,
						-0.18270905291767,
						0.12416108146346,
						0.37188129331604,
						-0.16568569181855,
						0.68345341494939,
						0.20348683817993,
						-0.5304731886148,
						-0.48307427060937,
						0.037549434561245,
						0.6541900289697,
						-0.34170323810686,
						-0.42105040313705,
						-0.28657459202171,
						-0.45810069059037,
						0.47233803623601,
						0.62983343996995,
						-0.13501520557406,
						0.37126936754874,
						0.23935989179564,
						0.33569848457791,
						-0.21319874931708,
						0.20759313319325,
						0.64184096168539,
						-0.10302591248453,
						0.50276272513659,
						0.42607029358856,
						0.48827801095811,
						0.67063982197682,
						0.22563686664375,
						-0.59146633572583,
						-0.42326725705661,
						-0.65187802542609,
						-0.64645903221328,
						-0.25217364826646,
						-0.36662260163895,
						0.66906507139314,
						-0.074072021223535,
						0.23787681290884,
						-0.50219304357861,
						0.26042606473817,
						0.47969107898041,
						-0.4428249249072,
						0.23727468192347,
						0.22472268319805,
						0.07553859138757,
						-0.59302499951573,
						0.4018846429531,
						0.092594695915641,
						-1.6488194553684
					],
					"e": 1.2059945304612,
					"error": 0.00090929806277758,
					"biasIn": -1
				},
				{
					"weights": [
						-0.43469245236601,
						0.59680200981878,
						-0.013169110629424,
						0.58217103551415,
						0.14939550536744,
						-0.22185934292677,
						-0.14025864255967,
						0.4294010515799,
						-0.50022365954818,
						-0.31701915411258,
						-0.60309001913984,
						-0.47557796221124,
						0.10392116386637,
						0.30916019829386,
						-0.23823047795094,
						-0.21967822621836,
						0.12689567602123,
						0.011830877645093,
						-0.2603170674006,
						-0.037473168252713,
						0.64433178176804,
						0.12660912192881,
						0.71351577831803,
						0.27103564924543,
						-0.38877715486893,
						-0.33415940906739,
						-0.22174372273237,
						-0.029938355291457,
						-0.51494010176377,
						-0.72333377339386,
						-0.65937301017965,
						0.23635437710144,
						0.68308964623386,
						-0.231722597477,
						-0.64717105420744,
						0.19507770689395,
						-0.22901427555703,
						0.67631412971036,
						-0.21258573426961,
						0.0044654164910953,
						-0.25174917877147,
						0.0061693071778617,
						-0.041049742288342,
						-0.37251828755007,
						0.16028932429967,
						-0.5978807403334,
						0.35997589774532,
						0.15263754868641,
						0.14904960823563,
						-0.29917145521445,
						0.41743958328835,
						-0.62803620209464,
						0.53385663882647,
						-0.031138218850673
					],
					"e": 0.39111411659599,
					"error": -0.000030268418607298,
					"biasIn": -1
				},
				{
					"weights": [
						0.69464570099638,
						-0.30072968656903,
						0.55866000395309,
						0.87929906166552,
						0.79877674500386,
						-0.13691558755241,
						0.1357424350932,
						0.47810876446468,
						0.090283143712443,
						-0.15792015779531,
						0.40715823439742,
						0.27268831478195,
						0.11764214406695,
						0.31927083859795,
						0.10943466232706,
						0.50054612697191,
						-0.093557757503236,
						0.52799443566399,
						0.023788239481657,
						0.2942836173874,
						-0.4837220676909,
						0.43668763813724,
						-0.036071048977509,
						-0.42242290294064,
						-0.17445000548791,
						0.34444713907976,
						-0.050724222194219,
						0.25531602190477,
						-0.26972646152019,
						0.5139621202874,
						0.012436924252225,
						-0.18838138315389,
						-0.1293220284428,
						0.069268102453577,
						0.52942109585351,
						0.1526525548081,
						-0.036049603437942,
						0.14405433029604,
						-0.15699786599044,
						0.24618679682444,
						-0.27367934595449,
						-0.22121633519372,
						-0.33853754590301,
						0.50327892611991,
						-0.068094045757463,
						-0.67322842469227,
						0.30037129298905,
						0.37432914976801,
						-0.093541936397443,
						0.14872767004487,
						-0.15307834019459,
						0.57632960113629,
						-0.61930455050502,
						-4.471153261993
					],
					"e": 4.771524554982,
					"error": 0.012319451025079,
					"biasIn": -1
				},
				{
					"weights": [
						0.99607005285809,
						0.080288170843724,
						0.044304742162154,
						0.33326221166759,
						-0.19964349785757,
						-0.18855282327486,
						0.59919409468413,
						0.47604936482536,
						0.56454878639745,
						-0.11818046523081,
						-0.11767821386707,
						0.11438708791351,
						0.2599681868514,
						0.561013339332,
						0.048354763570299,
						-0.40438028926847,
						-0.18440560452565,
						0.65244563841497,
						0.16343197733427,
						0.13154595301937,
						0.64197531081017,
						-0.16905598632177,
						0.23599645034481,
						0.73128818714856,
						-0.11325319798499,
						-0.12864882552177,
						0.071395767254114,
						-0.33531181927797,
						-0.48475754550052,
						-0.51781416750197,
						0.29501604478241,
						0.0028792257796307,
						-0.42191051651916,
						0.65915253217396,
						0.71526922585326,
						0.32728763068548,
						-0.43251138028865,
						-0.2608873075028,
						0.23242224283889,
						-0.43661558581673,
						0.32126253719421,
						-0.72078583270451,
						-0.089864467183168,
						-0.20911167046583,
						0.14134285266677,
						-0.11146685918292,
						0.1622500864044,
						0.29161407519776,
						-0.21034146283407,
						-0.67833625683587,
						0.33428386461758,
						0.09775542226619,
						0.04828240292636,
						-1.3725757061255
					],
					"e": 1.5348257925299,
					"error": 0.00093846497713281,
					"biasIn": -1
				},
				{
					"weights": [
						0.24744690865293,
						-0.56059708207709,
						0.478476652969,
						-0.5571827339752,
						0.41431245292739,
						-0.022574131810759,
						0.57517292584855,
						-0.24345611946053,
						-0.58381685489139,
						-0.46826114307295,
						-0.1867819869552,
						-0.55310233881479,
						0.18055069797422,
						-0.21248286214763,
						-0.13877764444322,
						0.5445349923091,
						0.13546021784758,
						-0.36262732139626,
						-0.22181101839246,
						0.25663942041147,
						0.65616705632455,
						-0.071099472787742,
						-0.41657535200228,
						0.4375634278863,
						-0.51749287968446,
						0.63396086524071,
						0.081830083475652,
						-0.28421254260642,
						0.66888163396674,
						-0.45299874543867,
						0.61104152603785,
						-0.40308107488104,
						-0.045772964285477,
						0.64992328797101,
						-0.6170749866121,
						-0.57312296417849,
						0.052441370403032,
						0.3143985509011,
						-0.011059874929335,
						0.21045916701685,
						0.50544211027734,
						0.69385978878293,
						0.14148467984947,
						-0.01220426276998,
						-0.075155580115008,
						-0.1151063392837,
						0.33270681139777,
						0.16260319875571,
						0.09223291155417,
						0.29630523408695,
						0.71639700114663,
						0.62888272076431,
						0.24471329197611,
						-0.3261361096814
					],
					"e": 0.65884292107917,
					"error": 0.00032665392641532,
					"biasIn": -1
				},
				{
					"weights": [
						-1.0385584921029,
						-0.63711720045096,
						0.24487460708369,
						-0.82833954200898,
						-0.36831547166973,
						0.012891406358397,
						-0.7910612800438,
						0.18459044193485,
						0.019427269835586,
						-0.21638117577347,
						0.55011824878971,
						-0.2465152270015,
						-0.26219589799977,
						-0.23913699136731,
						-0.70269583760343,
						0.40817919390592,
						-0.61498029729048,
						-0.29734143941996,
						-0.1951092555734,
						0.15107528970775,
						-0.49399223002506,
						0.16928443246602,
						-0.51624228425201,
						-0.17766395583071,
						-0.20989748428185,
						0.12829922390533,
						-0.15503041782154,
						-0.75406031525413,
						-0.12880352970726,
						-0.55135561625059,
						-0.1855783096409,
						-0.21213042851999,
						0.67512137694161,
						0.67839233502774,
						-0.020228336703966,
						-0.15886188118598,
						-0.15989150477424,
						-0.35263326624678,
						-0.19156521011511,
						0.12473036324333,
						-0.078416393614638,
						0.13257302735483,
						-0.27827190514677,
						-0.085881850127179,
						-0.61456112905256,
						0.019979468892422,
						0.086100100450368,
						-0.17896643395384,
						0.46561150028735,
						0.46478544324031,
						-0.18450628661657,
						0.71148460797672,
						0.64892447570858,
						1.8791388270644
					],
					"e": -1.7930387266141,
					"error": -0.0015749407222931,
					"biasIn": -1
				},
				{
					"weights": [
						0.97999483706895,
						0.088755423772517,
						-0.019209057903584,
						1.0015242735864,
						0.61594466933414,
						-0.50768464335972,
						0.58597503411814,
						0.39790266844214,
						-0.19905157337025,
						0.19498280926674,
						0.22949943335586,
						0.056620429891347,
						0.55504608261807,
						0.80632946332369,
						-0.34807173933883,
						-0.68043791084161,
						0.055841732328879,
						0.7462924806281,
						-0.29368100269507,
						-0.10437573887512,
						-0.013820498768206,
						0.029837456086295,
						-0.011814486263489,
						0.5747021827686,
						-0.50560651502041,
						-0.11939996832501,
						0.77493234810644,
						0.81288177066456,
						-0.23337732299957,
						-0.19562045949336,
						0.25362755877917,
						-0.19658817905877,
						0.13961156197702,
						-0.0012200909103257,
						0.24150360492956,
						-0.021946190181059,
						0.80557459930414,
						-0.00021786013414044,
						-0.042329110981417,
						0.0064961770574571,
						-0.11465872003746,
						-0.02406585277144,
						0.34352578738041,
						-0.157279677426,
						0.54834764137425,
						0.17743830750681,
						-0.27534419929288,
						-0.59724607519781,
						-0.17069166221119,
						0.5724470137128,
						0.60379922544864,
						0.27991839405249,
						0.047294635011383,
						-3.9516620123045
					],
					"e": 3.6763178130116,
					"error": 0.009284790468077,
					"biasIn": -1
				},
				{
					"weights": [
						-0.51145759616676,
						-0.15007437690719,
						0.5460891366323,
						-0.3368848359028,
						0.1635860097388,
						0.29108095138119,
						-0.32712191036928,
						0.3244570868844,
						0.68464949466608,
						-0.40274486829458,
						0.47008112395276,
						-0.064904101818186,
						-0.74284481658642,
						-0.27378494403372,
						0.32956986356764,
						-0.31549892614276,
						-0.023635768528924,
						0.41143160605649,
						0.40012869197985,
						0.26537109158494,
						0.21796938063135,
						0.61284680814368,
						0.078760748537407,
						-0.20207263865077,
						-0.0015438123578161,
						-0.090864990069401,
						0.23793822903096,
						0.28251935591567,
						-0.09023869660125,
						0.26018330041953,
						0.22327958038714,
						0.22738577330001,
						-0.036134244088974,
						0.14066790876113,
						-0.16329290246848,
						-0.15052942021958,
						0.13046561762835,
						0.65519743759913,
						0.62235817046498,
						0.13997343412834,
						0.20014226518261,
						0.039840296524399,
						-0.23054003785752,
						-0.23928718546476,
						-0.12697997940926,
						-0.20282054621754,
						0.12694295162762,
						-0.1842481726345,
						-0.63362948752747,
						-0.28813648876285,
						0.58282006965254,
						-0.029714411009074,
						0.16018713146353,
						1.1699553092249
					],
					"e": -1.0430123575973,
					"error": -0.00025808434355535,
					"biasIn": -1
				},
				{
					"weights": [
						0.95020874856039,
						0.080592807591372,
						0.050288180714711,
						0.83677194318663,
						0.82360150479101,
						-0.25694201046965,
						-0.0017717138287735,
						0.15280476508822,
						-0.012619243604316,
						0.7442119777897,
						-0.1501704551511,
						0.2512659663211,
						0.19979303774987,
						-0.4543201413726,
						-0.040716056461744,
						0.24288091653987,
						-0.49767234232674,
						-0.14599664872089,
						-0.10349413910009,
						0.33510237498889,
						-0.37874642618067,
						-0.035207109494773,
						-0.43758123308074,
						-0.54354077071152,
						0.6933336919146,
						0.044978553664173,
						0.11119193092677,
						-0.22077022791673,
						-0.37882501310718,
						0.42837805235463,
						-0.39914750317167,
						-0.20811866965626,
						-0.035335192809607,
						0.68679478364485,
						0.15413956291804,
						0.52724107103968,
						0.47677360175202,
						0.54578008752003,
						-0.61581140098566,
						-0.32664651952624,
						-0.17203614667195,
						-0.62668076127251,
						-0.48008239138979,
						-0.088378095911164,
						0.30903486257012,
						-0.12013662252478,
						0.22009666100977,
						-0.029615511070861,
						-0.26320031217345,
						0.58041291930835,
						0.51294114311932,
						-0.35431087160322,
						-0.22165863891106,
						-4.0277792768542
					],
					"e": 4.247875937864,
					"error": 0.0075688404677581,
					"biasIn": -1
				},
				{
					"weights": [
						-0.99325218683757,
						-0.65093660205796,
						-0.31283163234361,
						-0.81553442325196,
						-0.53053969045816,
						-0.49438159549628,
						-0.42238759956893,
						-0.69803096071216,
						0.28633351903807,
						0.035042706297484,
						-0.08578321973648,
						-0.25259420952311,
						-0.22372366898079,
						-0.37896055877746,
						-0.32244260640923,
						-0.15495677084194,
						-0.058010433483678,
						-0.090113442632777,
						0.14844199941783,
						-0.17579682786534,
						-0.57724780604073,
						-0.77430134930326,
						-0.62779649465938,
						0.041759249532947,
						0.40205216979877,
						-0.75775313345761,
						-0.21739279263883,
						-0.52616104172999,
						-0.39905746799022,
						-0.84366238115682,
						-0.13305193053323,
						0.69034255408336,
						0.39858625602015,
						-0.03101536852924,
						-0.58945260164872,
						-0.084269250630935,
						-0.20320627237105,
						-0.3872079390565,
						-0.13381111624825,
						-0.42367721665306,
						-0.29180031719364,
						-0.63422203546224,
						-0.41130682692562,
						0.029465253349248,
						0.43212446065356,
						-0.14555878863825,
						-0.34120654969636,
						0.18150939881044,
						0.57700625495018,
						0.17672960527917,
						0.032831140938499,
						-0.11686984209302,
						0.11926633603733,
						4.300392628317
					],
					"e": -4.6415991780134,
					"error": -0.011076923359849,
					"biasIn": -1
				},
				{
					"weights": [
						1.1885001600313,
						0.068718225753657,
						-0.020844006118654,
						0.96032328393729,
						0.81790923792449,
						0.061824810894584,
						-0.0063734827208162,
						0.90459033526369,
						0.26671875826499,
						0.50611480023494,
						-0.11957228995202,
						0.15648279824958,
						0.40509510904243,
						-0.5183418099218,
						-0.085405048382066,
						-0.58899626494082,
						0.22831965312516,
						0.76127970566886,
						0.0026479239018754,
						-0.30229580697164,
						0.192945057965,
						0.096947474149154,
						0.22358643848068,
						0.22891711563847,
						-0.19572057346152,
						0.16844703944678,
						-0.39269877200645,
						-0.11133684716767,
						-0.25928243880023,
						-0.077351110458296,
						-0.27872791171764,
						-0.66145584237933,
						0.51599859829909,
						-0.71150300625419,
						0.36401921002485,
						0.18139462416904,
						0.48248537853812,
						0.16496321014214,
						-0.19431353918357,
						0.22909196749313,
						-0.40746569496871,
						-0.16340014312471,
						-0.68948001107746,
						0.48093733433781,
						-0.62676906834775,
						-0.27004396682245,
						0.077966453207538,
						0.65616388915963,
						0.078370803667302,
						0.21528384764356,
						-0.31611067198139,
						-0.59823896704263,
						0.15229299518956,
						-3.7965473028102
					],
					"e": 3.8745137560178,
					"error": 0.0076242967481908,
					"biasIn": -1
				},
				{
					"weights": [
						-0.23905835186946,
						-0.29198794274752,
						0.62972254601863,
						-0.12780510173907,
						-0.25592506692332,
						-0.59338628401824,
						-0.37545341428185,
						0.17181176964193,
						0.61761057020157,
						-0.24570605591606,
						0.25996628216592,
						0.65822150622515,
						0.50243004030265,
						-0.20294697927274,
						0.46361538101462,
						-0.62835965349705,
						-0.057837498326164,
						-0.72455225686503,
						-0.26745609033165,
						0.22712771563595,
						-0.0047726879156742,
						0.0133764161378,
						-0.052119559481512,
						-0.58652071927468,
						0.26130501334317,
						-0.043300459033937,
						0.26563463912058,
						-0.1582416323576,
						0.25788303582727,
						-0.0022833309746905,
						-0.32309184371462,
						-0.053453978046624,
						-0.55150264467752,
						0.61215047227888,
						-0.5427422408317,
						-0.86717320112951,
						0.4369624615719,
						0.30513579463617,
						-0.22060928668287,
						-0.059276187711834,
						-0.36594547195976,
						-0.48828726131958,
						0.43690279738937,
						0.57264784970082,
						-0.52672521222799,
						-0.31521034754693,
						0.54529789475143,
						0.20019824080075,
						0.21310451370239,
						-0.21418042617682,
						-0.59250979652383,
						-0.26243772336292,
						-0.36867582057179,
						1.9341161521269
					],
					"e": -1.3888182573754,
					"error": -0.00070304864504032,
					"biasIn": -1
				},
				{
					"weights": [
						-0.069563546153692,
						-0.080885664783444,
						-0.1682149748739,
						0.29309447962848,
						-0.26804924479013,
						-0.62406678310646,
						-0.50922955607835,
						-0.080090163021714,
						0.1346788727012,
						-0.21665692948197,
						0.070680312227919,
						-0.08454541899579,
						-0.25220445380669,
						0.57571439705046,
						-0.74874414499192,
						-0.2092881291848,
						0.24026339283571,
						-0.53976695545971,
						-0.66998880654211,
						0.12619751625526,
						0.14762020794895,
						-0.17847362745921,
						0.21389152425835,
						0.30074362776971,
						-0.57541318710489,
						-0.14241103831162,
						0.070846446329432,
						-0.248956108329,
						-0.13341618488133,
						-0.15925955838426,
						0.59134600928457,
						0.085587061645167,
						0.27318734721998,
						-0.13016520294006,
						0.31810304338128,
						-0.42357747364134,
						0.26123581872362,
						0.12116765258791,
						-0.069411274841651,
						0.26116055536904,
						0.2032202176608,
						-0.0035936195782253,
						0.098872519739275,
						-0.072276531157316,
						-0.23031163472128,
						-0.18561921031579,
						-0.037105603962824,
						-0.11967756126164,
						-0.30835224037551,
						-0.086802437812567,
						0.066866689263419,
						-0.057135072692722,
						-0.48856858732681,
						1.8074784121593
					],
					"e": -1.8445840161221,
					"error": -0.00061567784479642,
					"biasIn": -1
				},
				{
					"weights": [
						-0.65031996193494,
						0.20437255404981,
						-0.13328987353272,
						-0.68016476963878,
						-0.43060961805746,
						-0.64323624433598,
						-0.17153299101514,
						-0.4910972859589,
						0.24555332517406,
						0.05862645278701,
						-0.018528002349792,
						-0.52258753229157,
						-0.84611249345535,
						0.13482341678082,
						-0.22503659041778,
						0.40012579014135,
						-0.22511663851065,
						-0.20376997067346,
						0.20690474262679,
						-0.2716229421278,
						0.058631335077551,
						-0.20595257689748,
						-0.55323537172959,
						0.19840089971738,
						-0.42123789003703,
						0.087678694693426,
						0.081273818501612,
						-0.10233651531518,
						-0.019788306810691,
						0.15857254593588,
						-0.3538895432706,
						-0.12445680163905,
						-0.053740530894845,
						0.65968909737743,
						0.56388258202286,
						-0.16096931470646,
						0.45446622858225,
						0.19716061724161,
						-0.59086001459847,
						-0.19348936316846,
						-0.44280149039124,
						-0.20000007558717,
						0.1568532127117,
						0.5601924319204,
						-0.2254313880127,
						0.25116913976564,
						0.20075522152639,
						0.34200659676652,
						0.16551754292461,
						-0.31819230785613,
						0.71310106126374,
						0.24543714614942,
						-0.32682437172581,
						3.1895328472392
					],
					"e": -2.9887776257128,
					"error": -0.0030623966942324,
					"biasIn": -1
				},
				{
					"weights": [
						-0.12300713815508,
						-0.71283210137376,
						-0.51646448496668,
						0.38058080663405,
						-0.2005623321756,
						0.016426950158061,
						0.17661271283556,
						-0.15594263385888,
						0.22284133822893,
						-0.19919705567017,
						-0.020877347855721,
						-0.048907661496981,
						-0.2024337058764,
						0.15422443301391,
						-0.044991636867095,
						0.14498361912205,
						0.21917361954865,
						0.057903114507797,
						0.3140633967874,
						0.0715718143226,
						0.21166534679026,
						-0.32912379410901,
						-0.54347849811563,
						-0.48890662172407,
						0.19151810156806,
						-0.012243395711571,
						-0.042165718480737,
						-0.22006641211994,
						-0.03128207955,
						-0.20283826505281,
						-0.49082032067048,
						-0.23501343303956,
						0.0518624399668,
						0.27783169969919,
						-0.095272890672784,
						-0.71564094406365,
						0.015406090788089,
						-0.17400454028737,
						0.050028770139802,
						0.12715105559465,
						-0.18416511076586,
						-0.28725652583385,
						0.11302989646364,
						0.10407577705656,
						0.52606787311299,
						0.70204276238767,
						-0.17564822123287,
						0.55831970334078,
						-0.12395852284794,
						0.42676983082154,
						0.12422471931297,
						-0.3594415043861,
						0.021135045095979,
						0.22335581997544
					],
					"e": -0.3990040412083,
					"error": 0.0000087595562737,
					"biasIn": -1
				},
				{
					"weights": [
						0.73376077205824,
						-0.11240036103525,
						-0.2962433504958,
						0.54336909315388,
						0.37251426305131,
						0.13531491414069,
						0.87745424648306,
						0.87032609663945,
						-0.12535976357904,
						0.27506221484612,
						0.1166048429068,
						-0.05116350565729,
						0.54309107461337,
						-0.37578016847431,
						0.35716929428722,
						0.28975053254858,
						-0.083666147350747,
						0.49471058260669,
						-0.67035917490375,
						-0.14935978569787,
						-0.055742911009698,
						-0.48520730431649,
						0.53753980534601,
						-0.43964274018291,
						-0.48025458029197,
						0.25842936466629,
						-0.46397073351368,
						0.27050338818293,
						-0.5030941614999,
						0.42467709987594,
						-0.041533413635374,
						0.079894085581262,
						-0.64919706684138,
						0.10417086669542,
						0.26911873256177,
						0.1539853487338,
						0.35162771142288,
						0.52994364712075,
						0.12592260362343,
						0.065856336259651,
						0.30972220232408,
						0.12148074498366,
						0.26418254058175,
						0.25752068335903,
						0.39837988937302,
						-0.11898431898875,
						0.1423890557441,
						0.45454920696876,
						0.40761624794912,
						-0.055524303267385,
						-0.71779853871093,
						0.17231250063055,
						0.21099146292022,
						-4.0220382850382
					],
					"e": 4.1644273407823,
					"error": 0.0061824844843587,
					"biasIn": -1
				},
				{
					"weights": [
						0.72357472987935,
						0.33134577925688,
						0.52705473790377,
						0.37778607177409,
						0.44925452143211,
						-0.37861847329332,
						0.47301157168843,
						0.42718779877236,
						-0.092682076324923,
						-0.3410554636667,
						-0.59549738621036,
						0.2867650198792,
						-0.1977777116075,
						-0.099766552553528,
						-0.19469126732043,
						-0.08736244151767,
						0.080327012890602,
						0.4088545800732,
						0.24309105610722,
						-0.18361164317363,
						0.11067243969565,
						0.53414395017132,
						0.75231362619892,
						-0.3553321973977,
						0.34380523870325,
						-0.19165824006293,
						-0.13291786488477,
						0.083798163889113,
						0.0069034633827981,
						-0.36488295313411,
						0.2378320129012,
						0.59616634124815,
						0.54030238150737,
						-0.33578622856085,
						0.31118000626257,
						0.068026282635398,
						0.05310612072608,
						0.27812629910783,
						0.43270934348784,
						-0.15526989183895,
						-0.12552164373423,
						-0.53883776499939,
						0.16259696215409,
						0.47113637542043,
						-0.18897548013681,
						0.033594049658334,
						0.39405755191868,
						0.39385965006244,
						-0.20307517912279,
						0.55108670390831,
						-0.11748896205784,
						-0.17723291455743,
						-0.57034109499891,
						-1.5562999526805
					],
					"e": 1.9503575045992,
					"error": 0.00028145389550496,
					"biasIn": -1
				},
				{
					"weights": [
						0.82760970017223,
						0.57603968725365,
						0.61530222619768,
						0.38030232281911,
						1.1060881052469,
						-0.10485808540618,
						0.36121688280998,
						0.42612644931521,
						-0.49265667387046,
						0.050646328796304,
						0.17181385661143,
						0.23101965522079,
						0.30821739535401,
						0.13691776775779,
						0.27139190582085,
						0.35681579639085,
						-0.24944061456013,
						0.76945088217639,
						-0.14829194658719,
						-0.1107008317744,
						0.21861022950913,
						0.36179846208133,
						-0.17057768859308,
						0.43230932030465,
						-0.17700805312032,
						-0.083736918163433,
						0.18947661533989,
						-0.11501946192068,
						-0.32487499110731,
						-0.02403179049442,
						0.01053237535999,
						0.34997680740068,
						-0.51834049925234,
						0.12927064970464,
						-0.028845427907569,
						-0.34520407254724,
						-0.093967413948346,
						-0.17147037291811,
						0.12970901486676,
						0.014462258135688,
						0.010698946872176,
						0.19692981658464,
						0.24477759353936,
						0.0071774491711518,
						0.041241636182656,
						-0.39557672809707,
						0.037039631399914,
						-0.18850360366808,
						0.53723603499097,
						-0.24123798381491,
						0.56255688112452,
						-0.5986834295657,
						0.67838903954281,
						-3.1682565293774
					],
					"e": 3.2052961607773,
					"error": 0.0034821705070994,
					"biasIn": -1
				},
				{
					"weights": [
						0.54619179583326,
						-0.093030142624896,
						-0.66474138358001,
						0.20753807182099,
						0.39905098937509,
						-0.32596098635538,
						0.54683889482821,
						0.54088467927816,
						0.30785811693877,
						0.20732913594729,
						-0.20273408715724,
						0.24450894816161,
						0.18737952683124,
						-0.050140721586067,
						0.51214835247329,
						-0.00046226731839553,
						-0.2404314351986,
						0.32416904090153,
						-0.22768104120619,
						-0.64150104962004,
						0.029893529182966,
						-0.61358144627934,
						0.57887518986031,
						0.24579946526418,
						0.21530008623052,
						0.5688949431401,
						-0.092669165429225,
						0.24534396163228,
						-0.47319290097589,
						-0.26732534595768,
						0.20703206476132,
						-0.50435182183356,
						0.36091511886713,
						0.16797249784961,
						0.099876935045281,
						0.54951678971736,
						-0.29993723219248,
						-0.35903433097868,
						0.099483085760333,
						-0.59766960731532,
						-0.61536907100783,
						-0.11031871234651,
						-0.20580207346174,
						-0.59892886193523,
						-0.16484744282769,
						-0.053064001153822,
						-0.30565127545403,
						0.40968125645626,
						0.68585793832693,
						-0.08849588726215,
						0.57724313172487,
						0.71156860302845,
						0.53674410481889,
						-1.8902192102037
					],
					"e": 1.5845679347497,
					"error": 0.0010690652235489,
					"biasIn": -1
				},
				{
					"weights": [
						-0.061805499351454,
						0.24168335532434,
						0.26422386476139,
						0.16129911523179,
						-0.066262124541,
						0.15579241666955,
						0.25597134488945,
						0.013650609199298,
						-0.60295910915601,
						-0.5645951845844,
						-0.44206249922638,
						-0.092114746742832,
						-0.035532607167247,
						-0.24048241065823,
						0.53313138339789,
						-0.013256260300201,
						0.51619089983434,
						0.075060329503569,
						0.4672757443923,
						-0.67800999133115,
						-0.051983228981027,
						0.38892380223609,
						-0.12166759906045,
						-0.63838775609133,
						0.53300164466067,
						-0.60783400599418,
						-0.61650405989964,
						-0.22311054699942,
						-0.034005405060846,
						-0.015521279484096,
						-0.15809895862022,
						0.071373060508236,
						-0.64139308192004,
						0.023254440306235,
						-0.22956298103174,
						0.32284717439224,
						-0.32197023200323,
						-0.11546132931799,
						0.069238899193891,
						0.51347964481994,
						0.52777665198187,
						-0.27240417012695,
						-0.46885235569956,
						-0.63214145477599,
						-0.51536986475698,
						-0.22986875451526,
						-0.53351235820713,
						0.54844661581827,
						-0.56717748580938,
						0.11690759837587,
						0.010794493245434,
						-0.092272690669657,
						-0.076284013129075,
						0.66697042222587
					],
					"e": -1.200482780433,
					"error": -0.00066842053357232,
					"biasIn": -1
				},
				{
					"weights": [
						-0.72777090973737,
						0.28776554318097,
						-0.16248170679447,
						-0.20756288295195,
						-0.85303159602521,
						-0.59430134923691,
						-0.091192641156225,
						-0.47395897999942,
						0.12322630286263,
						0.14294920824574,
						-0.15754833602986,
						0.074024982655536,
						-0.010643110511711,
						-0.34899248843493,
						0.48389495156035,
						0.67231573323438,
						0.35130848731821,
						-0.41958692855642,
						-0.40680972958404,
						-0.385268141928,
						0.046518653461646,
						-0.29328142361573,
						0.055170887110486,
						-0.091185884920066,
						-0.58191260297437,
						-0.28904904554677,
						0.62187783088224,
						-0.76708681666045,
						0.14401644555211,
						-0.16949051853183,
						0.31945870772314,
						0.34630751380163,
						0.6742833533308,
						-0.16704357203321,
						-0.40738336468563,
						0.017541971453998,
						-0.10894549768884,
						0.19527815779913,
						-0.41317372346719,
						0.12634020278328,
						-0.511148079421,
						-0.47496667234096,
						-0.26637532095825,
						-0.48500063000583,
						0.12106547011009,
						-0.0038870490536396,
						-0.3134325388985,
						0.0766992430922,
						0.20080552086168,
						-0.097857691988179,
						0.22917187470335,
						0.53685486328745,
						0.15197947475789,
						2.9567110799537
					],
					"e": -3.2701436188522,
					"error": -0.0029588767637054,
					"biasIn": -1
				},
				{
					"weights": [
						0.64614051368397,
						-0.31456374667226,
						-0.36646501770648,
						0.99397859398412,
						0.42959923101606,
						-0.10477315432393,
						0.594149050195,
						0.10222603379245,
						0.048432187536105,
						0.65373225733642,
						0.33988677524704,
						0.11246215663396,
						0.27671835278219,
						-0.49340358804612,
						0.098511418097863,
						-0.45124228604744,
						0.46496453737361,
						0.4093198919519,
						0.46982939410585,
						0.33194425575371,
						-0.1038821927955,
						-0.56213210791634,
						-0.060812068480568,
						0.027062647627405,
						0.047522918280861,
						0.63422184246756,
						-0.55665159541689,
						0.51889427967902,
						-0.26382494975887,
						0.69535351517237,
						-0.04046148881137,
						-0.45859368153886,
						-0.65439155575662,
						-0.066781015761457,
						0.17697484859021,
						0.098327126621744,
						-0.11126304287628,
						0.34377054264203,
						-0.20925373945153,
						0.22019372409632,
						-0.58452928491463,
						-0.43064705522399,
						-0.7084983850041,
						0.71513782461982,
						0.30690981961281,
						-0.027596715255556,
						-0.08424354242462,
						0.26817503151968,
						-0.14890959971896,
						-0.69618938044571,
						0.24688815277494,
						0.49208530653934,
						0.63703049596364,
						-2.75722083396
					],
					"e": 2.6729772915354,
					"error": 0.0028125709946893,
					"biasIn": -1
				},
				{
					"weights": [
						0.72281936373327,
						0.03592054669442,
						0.37959750187668,
						0.36885093557816,
						0.69390520685404,
						-0.32954153339853,
						0.020590033862176,
						0.24254944614913,
						0.71322310037699,
						0.31561377437317,
						0.53262361470493,
						0.071762385216534,
						0.73527398168603,
						0.11066770946723,
						-0.063815731270888,
						0.14266792310903,
						-0.30931793306487,
						0.76819685343067,
						0.11768024872984,
						-0.56319251269898,
						-0.34672002479,
						0.071641146788954,
						0.30515642886433,
						-0.18242513980069,
						-0.5096793810286,
						-0.27335369960779,
						0.10231305926093,
						-0.18573518287265,
						-0.18014552232713,
						0.78464146186611,
						0.33444526588736,
						-0.021462732340994,
						-0.10819807454498,
						0.71924309918725,
						-0.60688436093233,
						0.23421117528387,
						-0.09138677249213,
						0.30393180458398,
						0.24293465683261,
						-0.20460350383848,
						0.16897655555554,
						0.61307908330825,
						0.15395280692341,
						-0.49831937636274,
						0.66360453115116,
						-0.52754056744732,
						0.26527648278861,
						0.4719252284589,
						0.049897929806111,
						-0.43268621347608,
						0.39065053552057,
						0.41094375780465,
						0.47882108213429,
						-3.3776265227701
					],
					"e": 3.6429030055587,
					"error": 0.003956648031315,
					"biasIn": -1
				},
				{
					"weights": [
						0.98928050604644,
						-0.23621465199243,
						-0.55150936044461,
						1.0201847919511,
						0.76506945741423,
						-0.088545451422279,
						0.72096617309717,
						0.4512929716804,
						-0.1933312422927,
						0.3932871756024,
						0.47139462043473,
						-0.14709059189507,
						0.85950228752486,
						0.38037575551009,
						-0.29652261248534,
						-0.60822035549159,
						0.10222403898679,
						0.73781782360731,
						0.66998324561501,
						0.22366177798733,
						-0.092686384617791,
						0.27032410390392,
						0.070976339315496,
						-0.60489908639751,
						0.18966593234339,
						0.51006253271791,
						-0.046521187337102,
						0.57812094469315,
						0.040351497157537,
						0.62678546896732,
						0.54488122625348,
						0.2273674889026,
						-0.18445688973285,
						0.023496456118894,
						0.39240416470665,
						0.22129369491388,
						-0.26788079317928,
						-0.17664597790212,
						-0.17314138037395,
						-0.080491515586124,
						0.40511404252243,
						0.3572773402927,
						0.041809883583145,
						0.3869673298249,
						-0.13224848611747,
						0.23560324868086,
						-0.63391551717936,
						-0.62172340524567,
						-0.018990453936517,
						-0.23168168426932,
						-0.27802412118774,
						0.40325673163192,
						0.50000795778922,
						-4.4023652513587
					],
					"e": 3.7684497341793,
					"error": 0.015029771759992,
					"biasIn": -1
				},
				{
					"weights": [
						0.41640518967127,
						-0.01102372532371,
						0.5541678421555,
						0.83836648443487,
						0.28564130718176,
						-0.24414688172291,
						0.095997882834959,
						0.096789555845142,
						-0.34070225202615,
						-0.42513915617305,
						0.19672021122676,
						0.52845884172743,
						0.17300820792825,
						0.71714204977594,
						0.47105162197802,
						0.62851962798871,
						0.72129410561162,
						0.74755262444384,
						0.12906124322062,
						-0.53726535518975,
						0.43130727556502,
						0.25958672441588,
						-0.12570210665384,
						-0.43934477412956,
						0.21473979354204,
						-0.62829455090369,
						-0.43394301986056,
						0.25075072201183,
						-0.012978256349804,
						0.11382921733406,
						-0.086526606149516,
						0.086095607284604,
						-0.012438888331045,
						-0.003930220511606,
						-0.19771160207479,
						0.57009559058284,
						-0.2060439805156,
						0.25443363284282,
						0.35004782715911,
						-0.10917751481744,
						-0.24434017295322,
						0.40603565197823,
						-0.6148624188905,
						-0.63164231570152,
						-0.1018895578476,
						-0.16650163356414,
						0.13578721807039,
						-0.15715224455806,
						0.3688865285791,
						0.54360709538023,
						-0.27009085705146,
						0.20322539374486,
						0.27793588349603,
						-2.6884418523496
					],
					"e": 2.8242290704199,
					"error": 0.0021238735493826,
					"biasIn": -1
				}
			],
			"prevCount": 53,
			"bias": -1
		},
		{
			"neurons": [
				{
					"weights": [
						0.29175396067074,
						0.18715299485753,
						0.84536369218077,
						0.23894801587102,
						-0.47096004342155,
						0.0062033781390941,
						0.43034076605944,
						0.25279764243172,
						0.77828084727853,
						-0.17702590652176,
						0.29324843418607,
						0.75508122885187,
						-0.47074113470836,
						0.022104099066254,
						0.38098121253485,
						0.25040169021202,
						0.80604190942124,
						0.79846930041518,
						-0.092389698856417,
						0.65241083201942,
						-0.16504448431305,
						-0.01530223423869,
						0.39100092331021,
						0.18231439331369,
						0.29756744098901,
						0.4917659498601,
						0.097491924067358,
						0.72009758882026,
						0.21034961287614,
						0.22574491538071,
						0.86188217152441,
						0.66217487830706,
						-0.43127012384804,
						-0.1289131638867,
						0.68718366429955,
						0.85694155043241,
						0.02301154555365,
						-0.22119007764318,
						0.11865974632766,
						-0.40685687367622,
						-0.47376823840583,
						0.59165184450306,
						0.70193665597965,
						-0.1226883926386,
						0.65462206088446,
						0.043654723981727,
						0.12002994316888,
						0.3585237862371,
						0.63524486687051,
						0.64555714916929,
						0.2692597897202,
						-0.29252494895381,
						0.1577593737458,
						0.31789068927786
					],
					"e": 8.6229334505506,
					"error": 0.014572969580784,
					"biasIn": -1
				},
				{
					"weights": [
						0.27973830119085,
						-0.022805519638137,
						0.24035790008665,
						0.27380720822825,
						0.68659272460567,
						0.28096846737539,
						-0.21600209308916,
						0.45023774389424,
						-0.43965841166554,
						-0.2369341900564,
						-0.30650550439722,
						0.43830077941456,
						0.072242369649409,
						0.20356002782133,
						0.10368936572387,
						0.11355693125455,
						0.20297239793232,
						-0.28810254042742,
						-0.43575898410482,
						0.73383186832789,
						0.42756012174628,
						-0.28916927744491,
						-0.39977732361721,
						0.52954225553797,
						-0.33623090710744,
						0.22001933873708,
						0.46042321743268,
						0.13559963938631,
						0.14053079742312,
						0.20389470072809,
						-0.24185803223214,
						0.23500915899464,
						0.76938336361868,
						0.34348666971209,
						0.13771276757689,
						-0.12691729233821,
						0.36349778484468,
						-0.12318561487929,
						-0.32671519974335,
						0.19853170951478,
						0.044686778914533,
						-0.40947255267865,
						0.35341459181439,
						0.1627905872739,
						0.22938257043456,
						0.46787493519512,
						0.89892381168102,
						0.084594152758285,
						-0.35563544638526,
						-0.039007516582812,
						0.02245136888842,
						-0.36524667544162,
						0.57121784867898,
						-0.43660797226703
					],
					"e": 7.1558883367565,
					"error": 0.0039044618677957,
					"biasIn": -1
				},
				{
					"weights": [
						-0.21779428269068,
						-0.51155511882398,
						0.1703765616511,
						-0.3486279652049,
						0.35670237359993,
						0.55647716106042,
						-0.49677036125462,
						-0.29399165317562,
						0.31768332491093,
						-0.13614923613042,
						-0.45336953748433,
						0.87377769857857,
						-0.60471231353478,
						-0.42715448954192,
						0.13860353048793,
						-0.019355463166334,
						-0.24643072746795,
						-0.51077903362477,
						-0.3574777748955,
						0.50043919944575,
						-0.19015816228093,
						-0.19871369334471,
						-0.030456385682114,
						0.34233433076636,
						0.17651458825738,
						0.19488142771134,
						0.0054062519820528,
						0.90179646283485,
						0.40982001612066,
						-0.081645350044078,
						0.89485281283634,
						0.10756389975853,
						-0.055545072172148,
						0.0047681865440196,
						0.69502115297676,
						-0.23833089117728,
						0.90967838497365,
						-0.65740272051695,
						0.18361045926419,
						0.39166179309614,
						-0.62834917806086,
						-0.70247740375235,
						0.19980809277868,
						-0.43040130019229,
						0.72056385932155,
						0.46514455744695,
						-0.36064210232499,
						0.13156939126077,
						0.51840204583022,
						0.24365987236583,
						-0.37159112927451,
						-0.018522819309669,
						0.50726525031764,
						-0.0085431506732477
					],
					"e": 5.0760624354865,
					"error": 0.0019172718491012,
					"biasIn": -1
				},
				{
					"weights": [
						0.040441822866704,
						-0.50728626160434,
						-0.28844985675872,
						-0.54191774006915,
						-0.16506102255928,
						0.440695760986,
						-0.0036707230174913,
						0.34540715120914,
						0.26376749106063,
						0.3859683572156,
						-0.20020214238809,
						-0.16977036104188,
						-0.54962774648408,
						-0.19436107020509,
						-0.24968055036189,
						0.3931062729588,
						-0.24774018878845,
						0.69393358182626,
						0.7006698419722,
						0.26752994487555,
						0.092156425013106,
						0.2434594547283,
						0.13292329444957,
						0.80013064622076,
						0.59052654308011,
						0.58205904388348,
						-0.11536527336049,
						0.90363737704894,
						0.22628440119894,
						-0.075460234612192,
						0.077441671390046,
						-0.35172622129709,
						0.54855805013257,
						0.43122602238717,
						0.47739045800348,
						0.031364151636572,
						0.11957334738739,
						-0.11242916346093,
						-0.39802390017876,
						-0.11036880264945,
						0.092505481872792,
						-0.65822226241073,
						0.11603798647044,
						0.030023835330702,
						0.024622151086887,
						0.52700728609496,
						0.63301413593869,
						0.14901813331644,
						0.53803103713885,
						0.48866687373427,
						-0.25765030410647,
						0.58321813129024,
						0.91533477229923,
						-0.93575782745233
					],
					"e": 7.3618338194674,
					"error": 0.0054599971929634,
					"biasIn": -1
				},
				{
					"weights": [
						0.5064505765211,
						0.75910448250028,
						0.76097117854992,
						0.23051612729679,
						0.51445268958169,
						-0.17080259714772,
						0.66501077896174,
						-0.044719732160799,
						0.0039293505837519,
						0.97133643603655,
						-0.060280876023524,
						0.10618572884235,
						-0.025519099094139,
						0.20431399401139,
						0.42547439761378,
						0.19392416078078,
						0.1893445152103,
						0.75677019550235,
						0.81167684790845,
						0.22250792629268,
						-0.32972274016203,
						0.0386122916039,
						0.30624925704776,
						0.25071636657566,
						-0.45700540656112,
						0.73130355052641,
						0.27272484778574,
						-0.42304153648175,
						-0.14693814375838,
						0.029540647843108,
						0.36961791510197,
						0.58879431394372,
						-0.18652320368775,
						0.70034204163452,
						0.0065714823944815,
						-0.026636183136084,
						-0.015896327201736,
						-0.62710827893246,
						0.13224252180699,
						0.63794033383996,
						0.21705574862736,
						-0.56040431150778,
						-0.11688599488501,
						0.1799992128507,
						-0.08710518725957,
						0.24752652198361,
						0.8540987166556,
						0.016188322625205,
						-0.10104310398614,
						0.35403153164079,
						-0.052100022045322,
						0.30567455242777,
						0.73571224146095,
						-0.40969188029495
					],
					"e": 8.5943460608788,
					"error": 0.012201251388874,
					"biasIn": -1
				},
				{
					"weights": [
						0.45221419293426,
						0.4312831651625,
						-0.027876280500228,
						0.42737428832624,
						0.86648049348495,
						0.30860642442369,
						0.073461404201091,
						0.13402866261878,
						0.49595232443516,
						0.76721641207305,
						0.26476865111197,
						0.47248479516889,
						-0.0090655489110833,
						0.44030826484237,
						-0.20029656035818,
						-0.49803357165688,
						0.58077633991136,
						-0.42442739004039,
						0.88423147830211,
						0.13698642983932,
						0.14317628129797,
						0.84646825089259,
						-0.42642238091994,
						0.84503578437071,
						0.48516151559714,
						-0.0073988808354616,
						0.56948011449269,
						0.03273779184119,
						-0.4555935193432,
						-0.027423798776864,
						-0.099635150335774,
						0.71125969114979,
						0.38376879591922,
						0.063947462973423,
						0.22271635609081,
						0.15189716734721,
						-0.43779451975286,
						0.052406789465016,
						0.24690999415774,
						0.27892224197503,
						-0.42693493549173,
						-0.46094614144189,
						0.29508669245614,
						0.058482967478246,
						0.22425155219155,
						0.47339192807665,
						0.48272542809247,
						0.2089204534486,
						-0.140728281317,
						-0.51052968733716,
						0.21907525922,
						0.40176530708836,
						0.36875747388241,
						-0.26004255498305
					],
					"e": 8.5323172646411,
					"error": 0.0092580533696636,
					"biasIn": -1
				},
				{
					"weights": [
						-0.15387918229538,
						0.58244875095222,
						0.2635393149458,
						0.52332060964644,
						-0.25786715916625,
						0.11059212650921,
						0.54577447976491,
						0.23034479560282,
						-0.3235942483624,
						0.33344494922592,
						0.28405319486006,
						0.40519914814459,
						0.53904088943491,
						-0.12843067062918,
						0.37465241027375,
						-0.2202346668644,
						0.31562357305501,
						0.89880968119647,
						-0.31140957451564,
						0.31932612141762,
						-0.3707142725386,
						1.1023594420821,
						0.067987098170262,
						0.30133673608148,
						0.56420998148849,
						-0.32062611109067,
						-0.15794416826706,
						0.29574647330825,
						0.98060132139375,
						0.18633716863689,
						0.91186393523503,
						0.50306913721064,
						0.41057119574068,
						0.71255941565498,
						0.24634170725064,
						0.92447041594925,
						0.42189679346204,
						-0.28416372452864,
						0.55808985342784,
						0.39274170636403,
						-0.11799036167525,
						0.48395472381601,
						0.21445175182552,
						-0.10010953776813,
						0.756761200641,
						0.560822750891,
						0.34904864718588,
						0.77982216409445,
						0.1500305471171,
						-0.40984829769608,
						0.56916681188995,
						0.047386937644186,
						-0.22193156874327,
						-0.10908155955494
					],
					"e": 8.9711776952382,
					"error": 0.028720102785128,
					"biasIn": -1
				},
				{
					"weights": [
						0.19484673008125,
						-0.095566042922879,
						-0.52277474379902,
						0.10023665247473,
						0.76926073066221,
						0.31611236100145,
						0.18754145404847,
						0.10246630064948,
						0.85166019396866,
						0.12322844136853,
						0.47205300762776,
						0.70241844160918,
						-0.073242954647441,
						-0.029870407749526,
						-0.25204335077279,
						-0.28286239103202,
						-0.24057800112786,
						0.71127381977307,
						0.16232019179485,
						0.72996323124013,
						-0.10957904222485,
						0.72208503458095,
						0.077545869141626,
						0.55899482572156,
						0.032284084340094,
						-0.044820654947007,
						0.41373467550584,
						-0.08040502871953,
						0.55606073403015,
						0.87496839050528,
						0.83241538824585,
						0.14081941486206,
						-0.42316266474745,
						0.09362209928611,
						0.021415604455292,
						0.048945721869319,
						0.23628001286387,
						0.00035953030816437,
						0.40827940042342,
						0.61814203235797,
						0.74473990626874,
						-0.052081270937043,
						-0.084965372378313,
						0.063072031504674,
						0.11460983820053,
						0.37165461782151,
						0.68987723333591,
						-0.38428677301773,
						-0.46892690160409,
						0.56554240852558,
						0.34350084281107,
						0.36606768331496,
						0.7030530107657,
						0.40839309440791
					],
					"e": 9.5109294875116,
					"error": 0.021188697323974,
					"biasIn": -1
				},
				{
					"weights": [
						0.10278215819452,
						0.39721868415168,
						0.87463601568344,
						0.36496695093613,
						0.377544805385,
						0.0058023460451643,
						-0.25483795439065,
						0.79326165685157,
						0.77078128546471,
						0.61848961873079,
						-0.2349349509683,
						-0.032652539426378,
						-0.14537681423523,
						0.36914202097034,
						0.13208583372293,
						0.22051340200374,
						-0.31125258802905,
						0.13373986683804,
						-0.16757182462679,
						0.19175310109245,
						-0.028045122653734,
						0.051781065492298,
						-0.24847466622364,
						0.044780510746232,
						0.31056611985086,
						0.16580189925625,
						-0.21129992508201,
						0.0571912833041,
						0.58519179068925,
						-0.37324395689275,
						-0.16348617586945,
						0.41726316237973,
						-0.21920605456764,
						0.10926084612765,
						0.085805255358938,
						0.13132218976808,
						0.32214613540331,
						0.51695215967115,
						0.44754285055075,
						-0.051865021476112,
						-0.49846491961988,
						0.18370423215355,
						-0.19142217086041,
						0.40485061517877,
						0.28286078598739,
						0.03003062558184,
						0.46408865306102,
						-0.28293013408512,
						0.020721249464681,
						0.47082545655575,
						0.77665868542127,
						0.43338687320245,
						0.83785015036423,
						-0.31572729816367
					],
					"e": 8.8138019951986,
					"error": 0.0087171108343262,
					"biasIn": -1
				},
				{
					"weights": [
						0.78417982280634,
						-0.37986860861037,
						-0.040456324889474,
						0.42405565003022,
						0.88239598274912,
						0.077378365177392,
						0.7626895906765,
						0.064149604551208,
						0.012835374814412,
						0.47255756354084,
						0.34132839912704,
						0.27828474395338,
						0.808339528785,
						0.32954002494911,
						0.05916112262237,
						0.33849677837744,
						0.20476087613622,
						-0.33875182106253,
						0.33806055093413,
						0.93217886373721,
						0.017982572493335,
						0.3345335196653,
						-0.43704204223155,
						0.18317523034746,
						-0.49183513276272,
						0.4191453370089,
						0.80617337608584,
						0.60976621694539,
						-0.31614185551063,
						0.41066274344088,
						0.5384864278104,
						0.015749835193179,
						-0.020955719238495,
						0.51121463662243,
						-0.21589650718358,
						-0.14143283093897,
						-0.41473461052825,
						-0.44053501230424,
						-0.071168945389857,
						0.80920618994464,
						-0.50661670279196,
						-0.45006586598987,
						0.16477511959622,
						0.21376594323678,
						0.53617449291411,
						0.094605814604327,
						0.36858582365782,
						-0.49635224313048,
						0.11422050043738,
						-0.017970057907738,
						0.04713847428959,
						0.96048561491758,
						-0.011221455712215,
						-1.0848734910179
					],
					"e": 9.2016157107041,
					"error": 0.01737775357254,
					"biasIn": -1
				},
				{
					"weights": [
						-0.34707382728061,
						0.30883080075399,
						-0.20241115295521,
						0.47825328210508,
						-0.14709018186303,
						0.40889725046667,
						0.54296774268308,
						-0.016711483989627,
						0.46633959317557,
						-0.32954537981897,
						0.32432983336778,
						0.96926215281244,
						0.47999011698522,
						0.3337642888957,
						-0.18407591465581,
						0.18998347182184,
						-0.39594672235234,
						0.46083029439514,
						-0.14526458869445,
						-0.021541181550216,
						0.89219951514792,
						-0.022520137385002,
						0.13540268115682,
						0.70720533882207,
						-0.36938528650334,
						-0.14695651452019,
						0.47538946100431,
						-0.43919630740229,
						0.054499603915687,
						0.31692086804913,
						0.3475746455141,
						-0.26830856533029,
						0.017764297313155,
						0.71143293691256,
						0.37602490635206,
						0.89505361086018,
						0.13593051659966,
						-0.47022910776784,
						0.8631227066818,
						0.25368647730875,
						0.17742470573641,
						-0.0014874267877522,
						0.33779187085799,
						0.13864694480139,
						-0.086034858294764,
						0.059802557756269,
						0.48826994664472,
						0.43630264443539,
						-0.079571532251789,
						-0.34236815040606,
						0.23216570151245,
						0.23276922609416,
						0.4553067482933,
						0.11204477961688
					],
					"e": 6.6530973577017,
					"error": 0.0030417028378729,
					"biasIn": -1
				},
				{
					"weights": [
						0.72911423054719,
						0.90823187228165,
						-0.38946330077768,
						0.24349822388244,
						0.76959167335774,
						0.24128188462219,
						0.65815323802916,
						0.12161792922123,
						0.34031277817901,
						0.06032643378628,
						-0.033579198034725,
						0.082841513219245,
						0.66891027439734,
						-0.19446290512679,
						-0.024487212483225,
						-0.17371712691769,
						-0.023390323584177,
						-0.12813781734209,
						0.8752382062701,
						-0.22428214546992,
						0.13154194525108,
						0.13084714068991,
						0.28906475128324,
						-0.0031414432454061,
						-0.037318831011976,
						0.73928841298067,
						0.58278398600913,
						0.85429693213497,
						0.40151205658493,
						0.52512362280754,
						0.14202320963696,
						-0.41321606973037,
						0.27470217219363,
						0.39290610967977,
						0.61406588359411,
						-0.44716218868444,
						-0.33768805453339,
						0.21356737283041,
						0.19581656159894,
						0.78305136916974,
						0.10882518432416,
						0.22446305133083,
						0.78919860948281,
						0.10029353608144,
						0.67119928288666,
						0.16462627386453,
						-0.10749497315411,
						0.50893833764433,
						-0.28519663990548,
						0.40308975767883,
						0.49300084294828,
						0.33173980381064,
						-0.049929968147012,
						-0.019676704510366
					],
					"e": 8.1635950153275,
					"error": 0.0078631102996435,
					"biasIn": -1
				},
				{
					"weights": [
						0.1735456345006,
						-0.78727630413892,
						-0.016898683183628,
						-0.17461085908841,
						-0.21137940360159,
						-0.41875511963203,
						0.0054808079549702,
						0.51021208117858,
						-0.11285301074083,
						-0.91644081332916,
						-0.18477341393075,
						-0.083365317535673,
						0.041328794858329,
						-0.059922901104536,
						-0.24868250113458,
						-0.15826399254091,
						-0.2557684409559,
						0.32705207210134,
						-0.06491286752544,
						0.030533443344114,
						-0.32085944287852,
						-0.6803403880106,
						-0.66878023637923,
						-0.79506261526185,
						-0.22352356106353,
						-0.10491209320022,
						0.4212943037526,
						-0.0069436372380421,
						-0.12505795715234,
						-0.37264422587768,
						-0.046487406733594,
						-0.05808412813428,
						0.19892979911537,
						0.48725492587734,
						-0.25578180758342,
						0.18888310169681,
						-0.9072421726964,
						0.24862234642448,
						-0.86350982442318,
						0.43325990486327,
						-0.014602189557621,
						0.079553670755724,
						0.31951302128457,
						-0.28545380604678,
						0.47987083561441,
						0.15074452451325,
						-0.78890369800561,
						-0.33921138947356,
						-0.20031649045665,
						0.042908076034433,
						-0.72154741155183,
						-0.206290673648,
						-0.31621389994372,
						0.02868858114093
					],
					"e": -7.1544458263973,
					"error": -0.0005183596594955,
					"biasIn": -1
				},
				{
					"weights": [
						-0.29692577163823,
						-0.089219219529685,
						-0.60660202044314,
						-0.53969350927145,
						-0.040442247498493,
						-0.21955451019461,
						-0.76174785202434,
						-0.058536266303372,
						-0.088192418605908,
						-0.27840354784443,
						-0.11895354815214,
						-0.89784644798717,
						0.15104228878532,
						0.39172195873213,
						0.39372565804258,
						-0.49289035577106,
						-0.57159869894312,
						-0.56034650776918,
						-0.078310665578602,
						0.34329508884214,
						-0.58365659563613,
						-0.55780339718965,
						-0.20981806369043,
						-0.092435592798646,
						0.20286114944586,
						0.029794285935195,
						0.086961659798086,
						-0.30718317471603,
						-0.5730282510145,
						0.0042967489410471,
						0.19386811715374,
						0.2130997931049,
						-0.3251695510206,
						-0.60542434682645,
						-0.52926756115393,
						-0.1137324027412,
						-1.0026273962385,
						-0.32154482624365,
						-0.53198847969993,
						0.088673281508077,
						-0.23204570646425,
						0.34553182371779,
						0.2742319734102,
						-0.12678889883758,
						-0.050142247410547,
						0.13987042953277,
						-0.20453539067486,
						-0.28915165172374,
						-0.51858858546724,
						-0.18190167364509,
						-0.3994438407664,
						-0.33717015070056,
						-0.037733586001317,
						0.95169430992449
					],
					"e": -8.099434857353,
					"error": -0.01019200849375,
					"biasIn": -1
				},
				{
					"weights": [
						-0.45189085068118,
						0.058412889278778,
						-0.5431625908369,
						0.60815802846729,
						-0.39087722617804,
						-0.66665138787703,
						0.55004290709353,
						-0.1741768330476,
						-0.23380259360083,
						-0.067513872853225,
						-0.20199393614933,
						-0.08842895557627,
						-0.4168723395609,
						0.1086405526608,
						-0.22224993762051,
						-0.58732421319325,
						-0.82356442917219,
						0.23370586597251,
						-0.38043743331814,
						-0.082979810866906,
						-0.13210609689982,
						-0.32698138800184,
						0.26826634465036,
						0.15583515962748,
						0.14615207333476,
						-0.30190734799586,
						-0.31363681547139,
						-0.079518834095847,
						-0.33278213906637,
						0.46697516744106,
						-0.81529185703012,
						-0.21897270307576,
						-0.70741596809396,
						0.27746730406047,
						0.26862736571778,
						-0.39264671192024,
						-0.79988720128327,
						0.17077176244949,
						0.0025137743674467,
						-0.22701137268201,
						0.017650899968268,
						-0.5047372639601,
						0.30252266362579,
						-0.06290091373496,
						-0.11075284774325,
						0.40573756428918,
						0.2951448999459,
						-0.22862016469769,
						-0.035890490971607,
						0.1162096787738,
						-0.53390790955765,
						-0.7090709763337,
						-0.14572679589627,
						0.22983950546078
					],
					"e": -6.7378927083315,
					"error": -0.00051817629368603,
					"biasIn": -1
				}
			],
			"prevCount": 53,
			"bias": -1
		},
		{
			"neurons": [
				{
					"weights": [
						1.075656127902,
						0.22451638926928,
						0.58173369973509,
						-0.54499954583927,
						0.36708265505618,
						0.37624213807653,
						1.5864790335852,
						1.4574422460634,
						0.42868074580782,
						1.1476663962775,
						0.42909853972217,
						0.27990541268914,
						0.84521836202665,
						0.25625113722468,
						-0.49342143421002,
						0.65744988829972
					],
					"e": 8.062211165264,
					"error": 0.013548030075323,
					"biasIn": 1
				},
				{
					"weights": [
						0.27703089289601,
						0.55790202710157,
						0.085373830390082,
						0.30916840183838,
						2.0167423538973,
						0.19496325126608,
						0.42234443557503,
						0.73196476460239,
						-0.15833720926248,
						1.1143666573429,
						0.076345077228973,
						1.0419360933996,
						0.78898455777457,
						0.46998477567267,
						0.8928047413065,
						1.3053593515942
					],
					"e": 7.9747611922116,
					"error": 0.014094180245283,
					"biasIn": 1
				},
				{
					"weights": [
						0.13921175172991,
						-0.037626356200615,
						-0.77228827499548,
						0.32900548626728,
						0.74632266769813,
						1.3766618501779,
						0.14374167452729,
						1.3843336153448,
						0.61158489806212,
						0.74072491119777,
						0.16300781964173,
						0.70532805019617,
						-0.15308658445417,
						1.1038268943607,
						0.34311343706679,
						1.6985570464867
					],
					"e": 7.2326684703789,
					"error": 0.013773228059778,
					"biasIn": 1
				},
				{
					"weights": [
						-0.25807115276338,
						0.48172388602379,
						-0.65865204701248,
						-0.56334023803212,
						-1.7248513525416,
						-0.23222760099811,
						-1.2077584518023,
						0.013344620012134,
						-1.2150595865908,
						-0.30833062325142,
						-0.22541899892825,
